<?xml version="1.0"?>
<opencv_storage>
<cascade>
  <stageType>BOOST</stageType>
  <featureType>HAAR</featureType>
  <height>24</height>
  <width>28</width>
  <stageParams>
    <boostType>GAB</boostType>
    <minHitRate>9.9500000476837158e-01</minHitRate>
    <maxFalseAlarm>5.0000000000000000e-01</maxFalseAlarm>
    <weightTrimRate>9.4999998807907104e-01</weightTrimRate>
    <maxDepth>1</maxDepth>
    <maxWeakCount>100</maxWeakCount></stageParams>
  <featureParams>
    <maxCatCount>0</maxCatCount>
    <featSize>1</featSize>
    <mode>BASIC</mode></featureParams>
  <stageNum>30</stageNum>
  <stages>
    <!-- stage 0 -->
    <_>
      <maxWeakCount>7</maxWeakCount>
      <stageThreshold>-1.2909902334213257e+00</stageThreshold>
      <weakClassifiers>
        <_>
          <internalNodes>
            0 -1 67 2.8896562755107880e-02</internalNodes>
          <leafValues>
            -6.2942779064178467e-01 6.5957444906234741e-01</leafValues></_>
        <_>
          <internalNodes>
            0 -1 123 -7.2767198085784912e-02</internalNodes>
          <leafValues>
            7.8903388977050781e-01 -3.0695608258247375e-01</leafValues></_>
        <_>
          <internalNodes>
            0 -1 169 -9.6673890948295593e-03</internalNodes>
          <leafValues>
            6.9379818439483643e-01 -2.5143718719482422e-01</leafValues></_>
        <_>
          <internalNodes>
            0 -1 101 3.4559510648250580e-02</internalNodes>
          <leafValues>
            -2.0418842136859894e-01 8.3683961629867554e-01</leafValues></_>
        <_>
          <internalNodes>
            0 -1 92 5.6817820295691490e-03</internalNodes>
          <leafValues>
            -2.4930027127265930e-01 6.2061208486557007e-01</leafValues></_>
        <_>
          <internalNodes>
            0 -1 159 -8.8956160470843315e-03</internalNodes>
          <leafValues>
            7.3627918958663940e-01 -2.5088295340538025e-01</leafValues></_>
        <_>
          <internalNodes>
            0 -1 53 2.8209770098328590e-03</internalNodes>
          <leafValues>
            -2.6870986819267273e-01 6.7571341991424561e-01</leafValues></_></weakClassifiers></_>
    <!-- stage 1 -->
    <_>
      <maxWeakCount>6</maxWeakCount>
      <stageThreshold>-1.1121181249618530e+00</stageThreshold>
      <weakClassifiers>
        <_>
          <internalNodes>
            0 -1 94 6.2573097646236420e-02</internalNodes>
          <leafValues>
            -6.6279071569442749e-01 4.0000000596046448e-01</leafValues></_>
        <_>
          <internalNodes>
            0 -1 95 1.2355087324976921e-02</internalNodes>
          <leafValues>
            -3.0559253692626953e-01 7.6483023166656494e-01</leafValues></_>
        <_>
          <internalNodes>
            0 -1 57 8.9126005768775940e-03</internalNodes>
          <leafValues>
            -2.7231553196907043e-01 5.8204817771911621e-01</leafValues></_>
        <_>
          <internalNodes>
            0 -1 39 2.5888714008033276e-03</internalNodes>
          <leafValues>
            -2.2282379865646362e-01 7.1269536018371582e-01</leafValues></_>
        <_>
          <internalNodes>
            0 -1 154 4.1904458776116371e-03</internalNodes>
          <leafValues>
            -2.5710785388946533e-01 5.7739681005477905e-01</leafValues></_>
        <_>
          <internalNodes>
            0 -1 11 -2.3242799565196037e-02</internalNodes>
          <leafValues>
            6.9565808773040771e-01 -2.2599229216575623e-01</leafValues></_></weakClassifiers></_>
    <!-- stage 2 -->
    <_>
      <maxWeakCount>6</maxWeakCount>
      <stageThreshold>-9.0439385175704956e-01</stageThreshold>
      <weakClassifiers>
        <_>
          <internalNodes>
            0 -1 19 4.9973674118518829e-02</internalNodes>
          <leafValues>
            -6.6568917036056519e-01 3.6986300349235535e-01</leafValues></_>
        <_>
          <internalNodes>
            0 -1 221 -7.2530414909124374e-03</internalNodes>
          <leafValues>
            6.8120807409286499e-01 -3.3649984002113342e-01</leafValues></_>
        <_>
          <internalNodes>
            0 -1 128 4.1545242071151733e-02</internalNodes>
          <leafValues>
            -2.2679038345813751e-01 6.4047598838806152e-01</leafValues></_>
        <_>
          <internalNodes>
            0 -1 121 -4.6221282333135605e-02</internalNodes>
          <leafValues>
            7.3238617181777954e-01 -1.7969955503940582e-01</leafValues></_>
        <_>
          <internalNodes>
            0 -1 113 -2.4737246334552765e-02</internalNodes>
          <leafValues>
            6.6323375701904297e-01 -2.0714841783046722e-01</leafValues></_>
        <_>
          <internalNodes>
            0 -1 185 1.7613301053643227e-02</internalNodes>
          <leafValues>
            -1.5269577503204346e-01 7.1143347024917603e-01</leafValues></_></weakClassifiers></_>
    <!-- stage 3 -->
    <_>
      <maxWeakCount>5</maxWeakCount>
      <stageThreshold>-9.1897141933441162e-01</stageThreshold>
      <weakClassifiers>
        <_>
          <internalNodes>
            0 -1 47 6.2710575759410858e-02</internalNodes>
          <leafValues>
            -6.5882354974746704e-01 3.2432430982589722e-01</leafValues></_>
        <_>
          <internalNodes>
            0 -1 173 5.3328651934862137e-02</internalNodes>
          <leafValues>
            -3.1995555758476257e-01 6.9382965564727783e-01</leafValues></_>
        <_>
          <internalNodes>
            0 -1 182 -7.2290584444999695e-02</internalNodes>
          <leafValues>
            6.7399406433105469e-01 -2.3833608627319336e-01</leafValues></_>
        <_>
          <internalNodes>
            0 -1 58 3.9399713277816772e-02</internalNodes>
          <leafValues>
            -2.4088779091835022e-01 5.6539601087570190e-01</leafValues></_>
        <_>
          <internalNodes>
            0 -1 29 -9.8845668137073517e-02</internalNodes>
          <leafValues>
            6.7246872186660767e-01 -2.6725220680236816e-01</leafValues></_></weakClassifiers></_>
    <!-- stage 4 -->
    <_>
      <maxWeakCount>8</maxWeakCount>
      <stageThreshold>-9.0177309513092041e-01</stageThreshold>
      <weakClassifiers>
        <_>
          <internalNodes>
            0 -1 200 -3.2245218753814697e-02</internalNodes>
          <leafValues>
            7.2222220897674561e-01 -5.9788358211517334e-01</leafValues></_>
        <_>
          <internalNodes>
            0 -1 178 2.3723445832729340e-02</internalNodes>
          <leafValues>
            -4.4828629493713379e-01 5.4368937015533447e-01</leafValues></_>
        <_>
          <internalNodes>
            0 -1 264 4.5648528612218797e-04</internalNodes>
          <leafValues>
            2.5966951251029968e-01 -8.2101029157638550e-01</leafValues></_>
        <_>
          <internalNodes>
            0 -1 141 -2.6700589805841446e-02</internalNodes>
          <leafValues>
            6.0557109117507935e-01 -2.6341071724891663e-01</leafValues></_>
        <_>
          <internalNodes>
            0 -1 196 8.8498392142355442e-04</internalNodes>
          <leafValues>
            2.2492919862270355e-01 -7.9238724708557129e-01</leafValues></_>
        <_>
          <internalNodes>
            0 -1 49 -1.7654935072641820e-04</internalNodes>
          <leafValues>
            -5.1181769371032715e-01 2.9054591059684753e-01</leafValues></_>
        <_>
          <internalNodes>
            0 -1 77 -2.8286571614444256e-03</internalNodes>
          <leafValues>
            -8.7165451049804688e-01 1.4780771732330322e-01</leafValues></_>
        <_>
          <internalNodes>
            0 -1 213 8.4663443267345428e-03</internalNodes>
          <leafValues>
            -2.8960970044136047e-01 5.0431740283966064e-01</leafValues></_></weakClassifiers></_>
    <!-- stage 5 -->
    <_>
      <maxWeakCount>5</maxWeakCount>
      <stageThreshold>-8.5698801279067993e-01</stageThreshold>
      <weakClassifiers>
        <_>
          <internalNodes>
            0 -1 33 6.4080573618412018e-02</internalNodes>
          <leafValues>
            -6.1170214414596558e-01 7.8947371244430542e-01</leafValues></_>
        <_>
          <internalNodes>
            0 -1 99 -1.4212997257709503e-01</internalNodes>
          <leafValues>
            6.4648884534835815e-01 -4.0976262092590332e-01</leafValues></_>
        <_>
          <internalNodes>
            0 -1 84 -3.8055874407291412e-02</internalNodes>
          <leafValues>
            5.7161819934844971e-01 -2.9288032650947571e-01</leafValues></_>
        <_>
          <internalNodes>
            0 -1 41 -2.9852939769625664e-03</internalNodes>
          <leafValues>
            -6.3527929782867432e-01 2.9433086514472961e-01</leafValues></_>
        <_>
          <internalNodes>
            0 -1 6 -4.8237704322673380e-04</internalNodes>
          <leafValues>
            -7.0028370618820190e-01 2.2813783586025238e-01</leafValues></_></weakClassifiers></_>
    <!-- stage 6 -->
    <_>
      <maxWeakCount>6</maxWeakCount>
      <stageThreshold>-1.0574702024459839e+00</stageThreshold>
      <weakClassifiers>
        <_>
          <internalNodes>
            0 -1 27 -3.0773633718490601e-01</internalNodes>
          <leafValues>
            8.3783781528472900e-01 -6.1273211240768433e-01</leafValues></_>
        <_>
          <internalNodes>
            0 -1 9 2.2687494754791260e-01</internalNodes>
          <leafValues>
            -3.5091796517372131e-01 7.8979158401489258e-01</leafValues></_>
        <_>
          <internalNodes>
            0 -1 43 -9.7319930791854858e-03</internalNodes>
          <leafValues>
            -9.6696519851684570e-01 2.4877421557903290e-01</leafValues></_>
        <_>
          <internalNodes>
            0 -1 238 -5.9459134936332703e-03</internalNodes>
          <leafValues>
            -9.7213113307952881e-01 1.5737642347812653e-01</leafValues></_>
        <_>
          <internalNodes>
            0 -1 210 -4.4312677346169949e-03</internalNodes>
          <leafValues>
            -7.0269650220870972e-01 1.7633755505084991e-01</leafValues></_>
        <_>
          <internalNodes>
            0 -1 217 -1.3857076410204172e-03</internalNodes>
          <leafValues>
            -6.0917311906814575e-01 2.0272570848464966e-01</leafValues></_></weakClassifiers></_>
    <!-- stage 7 -->
    <_>
      <maxWeakCount>11</maxWeakCount>
      <stageThreshold>-1.3807733058929443e+00</stageThreshold>
      <weakClassifiers>
        <_>
          <internalNodes>
            0 -1 119 -1.7973060905933380e-01</internalNodes>
          <leafValues>
            7.8571426868438721e-01 -5.7512950897216797e-01</leafValues></_>
        <_>
          <internalNodes>
            0 -1 199 7.2249434888362885e-03</internalNodes>
          <leafValues>
            -3.8104346394538879e-01 3.6544001102447510e-01</leafValues></_>
        <_>
          <internalNodes>
            0 -1 163 6.7850239574909210e-03</internalNodes>
          <leafValues>
            -2.1540272235870361e-01 4.9197572469711304e-01</leafValues></_>
        <_>
          <internalNodes>
            0 -1 193 1.9196223001927137e-03</internalNodes>
          <leafValues>
            -2.3980931937694550e-01 4.4892415404319763e-01</leafValues></_>
        <_>
          <internalNodes>
            0 -1 14 -2.1065412089228630e-02</internalNodes>
          <leafValues>
            6.1156189441680908e-01 -1.7661923170089722e-01</leafValues></_>
        <_>
          <internalNodes>
            0 -1 224 5.0223655998706818e-03</internalNodes>
          <leafValues>
            -2.0123291015625000e-01 5.8089619874954224e-01</leafValues></_>
        <_>
          <internalNodes>
            0 -1 138 3.8698171265423298e-03</internalNodes>
          <leafValues>
            -2.1562862396240234e-01 5.7123357057571411e-01</leafValues></_>
        <_>
          <internalNodes>
            0 -1 103 5.0165122374892235e-03</internalNodes>
          <leafValues>
            -2.1382051706314087e-01 6.0552436113357544e-01</leafValues></_>
        <_>
          <internalNodes>
            0 -1 55 9.1033846139907837e-02</internalNodes>
          <leafValues>
            -1.6926026344299316e-01 6.9234985113143921e-01</leafValues></_>
        <_>
          <internalNodes>
            0 -1 73 1.5730736777186394e-03</internalNodes>
          <leafValues>
            -2.7916765213012695e-01 4.5961183309555054e-01</leafValues></_>
        <_>
          <internalNodes>
            0 -1 161 3.7837349809706211e-03</internalNodes>
          <leafValues>
            -2.3456771671772003e-01 5.6830018758773804e-01</leafValues></_></weakClassifiers></_>
    <!-- stage 8 -->
    <_>
      <maxWeakCount>8</maxWeakCount>
      <stageThreshold>-1.2442930936813354e+00</stageThreshold>
      <weakClassifiers>
        <_>
          <internalNodes>
            0 -1 130 2.8277528285980225e-01</internalNodes>
          <leafValues>
            -5.9029650688171387e-01 4.4186046719551086e-01</leafValues></_>
        <_>
          <internalNodes>
            0 -1 89 -1.5429046750068665e-01</internalNodes>
          <leafValues>
            6.7559254169464111e-01 -2.5128319859504700e-01</leafValues></_>
        <_>
          <internalNodes>
            0 -1 260 1.5551336109638214e-03</internalNodes>
          <leafValues>
            1.6189719736576080e-01 -8.0273169279098511e-01</leafValues></_>
        <_>
          <internalNodes>
            0 -1 257 -2.4485574103891850e-03</internalNodes>
          <leafValues>
            -5.2145743370056152e-01 2.5597551465034485e-01</leafValues></_>
        <_>
          <internalNodes>
            0 -1 246 1.8513420945964754e-04</internalNodes>
          <leafValues>
            -3.6200264096260071e-01 4.0560701489448547e-01</leafValues></_>
        <_>
          <internalNodes>
            0 -1 91 -7.4292457429692149e-04</internalNodes>
          <leafValues>
            -4.5832678675651550e-01 2.8281396627426147e-01</leafValues></_>
        <_>
          <internalNodes>
            0 -1 134 -2.4309121072292328e-02</internalNodes>
          <leafValues>
            5.6050461530685425e-01 -2.0675352215766907e-01</leafValues></_>
        <_>
          <internalNodes>
            0 -1 22 -1.4341833069920540e-02</internalNodes>
          <leafValues>
            -6.5561068058013916e-01 2.0649689435958862e-01</leafValues></_></weakClassifiers></_>
    <!-- stage 9 -->
    <_>
      <maxWeakCount>9</maxWeakCount>
      <stageThreshold>-8.1647181510925293e-01</stageThreshold>
      <weakClassifiers>
        <_>
          <internalNodes>
            0 -1 129 -1.0286901891231537e-01</internalNodes>
          <leafValues>
            6.4705884456634521e-01 -5.8421051502227783e-01</leafValues></_>
        <_>
          <internalNodes>
            0 -1 122 -1.5882547199726105e-01</internalNodes>
          <leafValues>
            6.9300204515457153e-01 -2.6961383223533630e-01</leafValues></_>
        <_>
          <internalNodes>
            0 -1 24 -1.0863341391086578e-02</internalNodes>
          <leafValues>
            -7.4061346054077148e-01 2.1144741773605347e-01</leafValues></_>
        <_>
          <internalNodes>
            0 -1 30 -3.6863204091787338e-02</internalNodes>
          <leafValues>
            7.4225264787673950e-01 -1.3862989842891693e-01</leafValues></_>
        <_>
          <internalNodes>
            0 -1 86 -5.2027684432687238e-05</internalNodes>
          <leafValues>
            2.8035831451416016e-01 -3.7110880017280579e-01</leafValues></_>
        <_>
          <internalNodes>
            0 -1 216 2.2214287891983986e-03</internalNodes>
          <leafValues>
            -2.4603179097175598e-01 4.0074947476387024e-01</leafValues></_>
        <_>
          <internalNodes>
            0 -1 160 -2.9820522293448448e-02</internalNodes>
          <leafValues>
            8.0970788002014160e-01 -1.3461534678936005e-01</leafValues></_>
        <_>
          <internalNodes>
            0 -1 66 -1.7418302595615387e-02</internalNodes>
          <leafValues>
            6.0527133941650391e-01 -1.7379783093929291e-01</leafValues></_>
        <_>
          <internalNodes>
            0 -1 106 1.2992545962333679e-02</internalNodes>
          <leafValues>
            -4.0815961360931396e-01 3.0851975083351135e-01</leafValues></_></weakClassifiers></_>
    <!-- stage 10 -->
    <_>
      <maxWeakCount>10</maxWeakCount>
      <stageThreshold>-1.3476282358169556e+00</stageThreshold>
      <weakClassifiers>
        <_>
          <internalNodes>
            0 -1 131 4.1275896131992340e-02</internalNodes>
          <leafValues>
            -5.5897438526153564e-01 7.5000000000000000e-01</leafValues></_>
        <_>
          <internalNodes>
            0 -1 252 -5.0000060582533479e-05</internalNodes>
          <leafValues>
            2.4976471066474915e-01 -4.5298892259597778e-01</leafValues></_>
        <_>
          <internalNodes>
            0 -1 51 1.5670070424675941e-02</internalNodes>
          <leafValues>
            -2.1215736865997314e-01 5.1044887304306030e-01</leafValues></_>
        <_>
          <internalNodes>
            0 -1 60 -6.4294738695025444e-03</internalNodes>
          <leafValues>
            -8.6696165800094604e-01 1.3959513604640961e-01</leafValues></_>
        <_>
          <internalNodes>
            0 -1 208 -4.1301287710666656e-03</internalNodes>
          <leafValues>
            -8.8726383447647095e-01 1.3521140813827515e-01</leafValues></_>
        <_>
          <internalNodes>
            0 -1 226 2.6234073564410210e-02</internalNodes>
          <leafValues>
            9.6929647028446198e-02 -9.1798192262649536e-01</leafValues></_>
        <_>
          <internalNodes>
            0 -1 88 1.1135685490444303e-03</internalNodes>
          <leafValues>
            -2.3438245058059692e-01 6.0564386844635010e-01</leafValues></_>
        <_>
          <internalNodes>
            0 -1 209 -1.1377596529200673e-03</internalNodes>
          <leafValues>
            -5.9576803445816040e-01 2.1045319736003876e-01</leafValues></_>
        <_>
          <internalNodes>
            0 -1 162 1.7598887206986547e-03</internalNodes>
          <leafValues>
            -3.0645474791526794e-01 4.1989496350288391e-01</leafValues></_>
        <_>
          <internalNodes>
            0 -1 171 -9.0695414692163467e-03</internalNodes>
          <leafValues>
            9.1013401746749878e-01 -1.6485981643199921e-01</leafValues></_></weakClassifiers></_>
    <!-- stage 11 -->
    <_>
      <maxWeakCount>9</maxWeakCount>
      <stageThreshold>-9.6826148033142090e-01</stageThreshold>
      <weakClassifiers>
        <_>
          <internalNodes>
            0 -1 104 2.6069149374961853e-01</internalNodes>
          <leafValues>
            -5.6728231906890869e-01 4.2857143282890320e-01</leafValues></_>
        <_>
          <internalNodes>
            0 -1 177 -1.4171287417411804e-02</internalNodes>
          <leafValues>
            -9.2178905010223389e-01 6.2390066683292389e-02</leafValues></_>
        <_>
          <internalNodes>
            0 -1 44 3.4705698490142822e-03</internalNodes>
          <leafValues>
            1.8018652498722076e-01 -6.9313079118728638e-01</leafValues></_>
        <_>
          <internalNodes>
            0 -1 78 -2.2122436761856079e-01</internalNodes>
          <leafValues>
            4.6221950650215149e-01 -2.8695812821388245e-01</leafValues></_>
        <_>
          <internalNodes>
            0 -1 48 9.2248100554570556e-04</internalNodes>
          <leafValues>
            1.8170011043548584e-01 -7.0622771978378296e-01</leafValues></_>
        <_>
          <internalNodes>
            0 -1 172 -7.3953390121459961e-02</internalNodes>
          <leafValues>
            6.0345464944839478e-01 -2.0392473042011261e-01</leafValues></_>
        <_>
          <internalNodes>
            0 -1 65 1.1562372557818890e-02</internalNodes>
          <leafValues>
            -1.9606293737888336e-01 5.5693602561950684e-01</leafValues></_>
        <_>
          <internalNodes>
            0 -1 111 2.9424533247947693e-02</internalNodes>
          <leafValues>
            -2.0232321321964264e-01 5.7433909177780151e-01</leafValues></_>
        <_>
          <internalNodes>
            0 -1 247 1.9461107440292835e-03</internalNodes>
          <leafValues>
            1.8815281987190247e-01 -6.7555165290832520e-01</leafValues></_></weakClassifiers></_>
    <!-- stage 12 -->
    <_>
      <maxWeakCount>8</maxWeakCount>
      <stageThreshold>-1.0384843349456787e+00</stageThreshold>
      <weakClassifiers>
        <_>
          <internalNodes>
            0 -1 54 4.3818674748763442e-04</internalNodes>
          <leafValues>
            -6.2393164634704590e-01 3.0158731341362000e-01</leafValues></_>
        <_>
          <internalNodes>
            0 -1 244 2.9223272576928139e-05</internalNodes>
          <leafValues>
            -3.8389885425567627e-01 3.7629437446594238e-01</leafValues></_>
        <_>
          <internalNodes>
            0 -1 70 -4.4733719551004469e-04</internalNodes>
          <leafValues>
            5.5194807052612305e-01 -2.3072309792041779e-01</leafValues></_>
        <_>
          <internalNodes>
            0 -1 175 1.0741848964244127e-03</internalNodes>
          <leafValues>
            -3.6276853084564209e-01 4.0482896566390991e-01</leafValues></_>
        <_>
          <internalNodes>
            0 -1 28 -1.4794558286666870e-02</internalNodes>
          <leafValues>
            4.2768922448158264e-01 -3.2700994610786438e-01</leafValues></_>
        <_>
          <internalNodes>
            0 -1 263 -1.8183754946221597e-05</internalNodes>
          <leafValues>
            4.6875524520874023e-01 -3.0511417984962463e-01</leafValues></_>
        <_>
          <internalNodes>
            0 -1 42 -3.5757559817284346e-03</internalNodes>
          <leafValues>
            6.4843684434890747e-01 -1.8053467571735382e-01</leafValues></_>
        <_>
          <internalNodes>
            0 -1 64 -1.2041383888572454e-03</internalNodes>
          <leafValues>
            9.0843671560287476e-01 -1.3939583301544189e-01</leafValues></_></weakClassifiers></_>
    <!-- stage 13 -->
    <_>
      <maxWeakCount>7</maxWeakCount>
      <stageThreshold>-9.7677439451217651e-01</stageThreshold>
      <weakClassifiers>
        <_>
          <internalNodes>
            0 -1 37 1.8115383386611938e-01</internalNodes>
          <leafValues>
            -5.5440413951873779e-01 5.0000000000000000e-01</leafValues></_>
        <_>
          <internalNodes>
            0 -1 170 4.6689077280461788e-03</internalNodes>
          <leafValues>
            1.0017153620719910e-01 -6.6381251811981201e-01</leafValues></_>
        <_>
          <internalNodes>
            0 -1 5 -2.3652512580156326e-02</internalNodes>
          <leafValues>
            -9.2059254646301270e-01 1.0139819979667664e-01</leafValues></_>
        <_>
          <internalNodes>
            0 -1 74 4.8013092018663883e-03</internalNodes>
          <leafValues>
            1.2166997045278549e-01 -1.</leafValues></_>
        <_>
          <internalNodes>
            0 -1 222 1.8181797116994858e-02</internalNodes>
          <leafValues>
            -2.7618104219436646e-01 4.9237018823623657e-01</leafValues></_>
        <_>
          <internalNodes>
            0 -1 21 1.9621271640062332e-03</internalNodes>
          <leafValues>
            1.9360473752021790e-01 -5.9307980537414551e-01</leafValues></_>
        <_>
          <internalNodes>
            0 -1 202 -5.5559566244482994e-03</internalNodes>
          <leafValues>
            -9.5157587528228760e-01 1.2365087121725082e-01</leafValues></_></weakClassifiers></_>
    <!-- stage 14 -->
    <_>
      <maxWeakCount>9</maxWeakCount>
      <stageThreshold>-1.0326055288314819e+00</stageThreshold>
      <weakClassifiers>
        <_>
          <internalNodes>
            0 -1 212 -3.8261812180280685e-02</internalNodes>
          <leafValues>
            8.0000001192092896e-01 -5.4822337627410889e-01</leafValues></_>
        <_>
          <internalNodes>
            0 -1 59 2.3150339722633362e-02</internalNodes>
          <leafValues>
            3.0401354655623436e-02 -1.</leafValues></_>
        <_>
          <internalNodes>
            0 -1 167 -2.0958084613084793e-02</internalNodes>
          <leafValues>
            -6.1867690086364746e-01 1.6676539182662964e-01</leafValues></_>
        <_>
          <internalNodes>
            0 -1 241 2.9387668473646045e-04</internalNodes>
          <leafValues>
            -2.5130513310432434e-01 4.3596616387367249e-01</leafValues></_>
        <_>
          <internalNodes>
            0 -1 23 -9.2664442490786314e-04</internalNodes>
          <leafValues>
            3.9216315746307373e-01 -2.8160494565963745e-01</leafValues></_>
        <_>
          <internalNodes>
            0 -1 223 1.1631172383204103e-03</internalNodes>
          <leafValues>
            -2.0171672105789185e-01 4.6204739809036255e-01</leafValues></_>
        <_>
          <internalNodes>
            0 -1 120 -1.9760703667998314e-02</internalNodes>
          <leafValues>
            8.1441384553909302e-01 -1.3303594291210175e-01</leafValues></_>
        <_>
          <internalNodes>
            0 -1 71 -4.2239797039655969e-05</internalNodes>
          <leafValues>
            3.2191002368927002e-01 -3.3060991764068604e-01</leafValues></_>
        <_>
          <internalNodes>
            0 -1 63 1.2137342244386673e-02</internalNodes>
          <leafValues>
            -1.3579614460468292e-01 8.3280616998672485e-01</leafValues></_></weakClassifiers></_>
    <!-- stage 15 -->
    <_>
      <maxWeakCount>11</maxWeakCount>
      <stageThreshold>-1.2361959218978882e+00</stageThreshold>
      <weakClassifiers>
        <_>
          <internalNodes>
            0 -1 192 -2.7432348579168320e-02</internalNodes>
          <leafValues>
            4.2857143282890320e-01 -5.6728231906890869e-01</leafValues></_>
        <_>
          <internalNodes>
            0 -1 116 -1.4571864157915115e-03</internalNodes>
          <leafValues>
            5.1879543066024780e-01 -2.3029886186122894e-01</leafValues></_>
        <_>
          <internalNodes>
            0 -1 140 1.5976482245605439e-04</internalNodes>
          <leafValues>
            2.4506679177284241e-01 -3.6728259921073914e-01</leafValues></_>
        <_>
          <internalNodes>
            0 -1 143 -1.7744037904776633e-04</internalNodes>
          <leafValues>
            3.1705495715141296e-01 -3.0947270989418030e-01</leafValues></_>
        <_>
          <internalNodes>
            0 -1 207 7.6337088830769062e-04</internalNodes>
          <leafValues>
            -2.7374881505966187e-01 3.6394953727722168e-01</leafValues></_>
        <_>
          <internalNodes>
            0 -1 118 -3.7893466651439667e-03</internalNodes>
          <leafValues>
            -8.5505253076553345e-01 1.6274690628051758e-01</leafValues></_>
        <_>
          <internalNodes>
            0 -1 249 6.6811923170462251e-04</internalNodes>
          <leafValues>
            -4.0920898318290710e-01 2.4542166292667389e-01</leafValues></_>
        <_>
          <internalNodes>
            0 -1 127 -1.0775052942335606e-03</internalNodes>
          <leafValues>
            7.0123571157455444e-01 -1.4532484114170074e-01</leafValues></_>
        <_>
          <internalNodes>
            0 -1 219 1.3795263839710969e-05</internalNodes>
          <leafValues>
            -2.8056287765502930e-01 3.7652400135993958e-01</leafValues></_>
        <_>
          <internalNodes>
            0 -1 186 3.6488107871264219e-03</internalNodes>
          <leafValues>
            -2.3967832326889038e-01 5.2902573347091675e-01</leafValues></_>
        <_>
          <internalNodes>
            0 -1 180 -1.6309039667248726e-02</internalNodes>
          <leafValues>
            5.4731458425521851e-01 -2.0356249809265137e-01</leafValues></_></weakClassifiers></_>
    <!-- stage 16 -->
    <_>
      <maxWeakCount>10</maxWeakCount>
      <stageThreshold>-1.0682104825973511e+00</stageThreshold>
      <weakClassifiers>
        <_>
          <internalNodes>
            0 -1 201 -3.5782281309366226e-02</internalNodes>
          <leafValues>
            1. -5.2736318111419678e-01</leafValues></_>
        <_>
          <internalNodes>
            0 -1 68 -2.7655744925141335e-03</internalNodes>
          <leafValues>
            4.6116027235984802e-01 -2.1485833823680878e-01</leafValues></_>
        <_>
          <internalNodes>
            0 -1 198 3.9423387497663498e-03</internalNodes>
          <leafValues>
            1.2098688632249832e-01 -7.5571781396865845e-01</leafValues></_>
        <_>
          <internalNodes>
            0 -1 7 -1.0041354224085808e-02</internalNodes>
          <leafValues>
            -6.6778498888015747e-01 1.8481200933456421e-01</leafValues></_>
        <_>
          <internalNodes>
            0 -1 61 -3.6705096717923880e-03</internalNodes>
          <leafValues>
            3.2406017184257507e-01 -3.1167760491371155e-01</leafValues></_>
        <_>
          <internalNodes>
            0 -1 215 -9.9688046611845493e-04</internalNodes>
          <leafValues>
            6.6398465633392334e-01 -1.1097174137830734e-01</leafValues></_>
        <_>
          <internalNodes>
            0 -1 26 -2.9058649670332670e-03</internalNodes>
          <leafValues>
            -5.5128955841064453e-01 1.8542549014091492e-01</leafValues></_>
        <_>
          <internalNodes>
            0 -1 0 -7.5844705861527473e-05</internalNodes>
          <leafValues>
            -3.8569667935371399e-01 2.3592561483383179e-01</leafValues></_>
        <_>
          <internalNodes>
            0 -1 220 2.1763297263532877e-03</internalNodes>
          <leafValues>
            -2.7610898017883301e-01 3.1415057182312012e-01</leafValues></_>
        <_>
          <internalNodes>
            0 -1 189 1.1050743341911584e-04</internalNodes>
          <leafValues>
            -3.2301792502403259e-01 2.9023447632789612e-01</leafValues></_></weakClassifiers></_>
    <!-- stage 17 -->
    <_>
      <maxWeakCount>8</maxWeakCount>
      <stageThreshold>-8.0175358057022095e-01</stageThreshold>
      <weakClassifiers>
        <_>
          <internalNodes>
            0 -1 36 1.9422224164009094e-01</internalNodes>
          <leafValues>
            -5.7608693838119507e-01 2.6086956262588501e-01</leafValues></_>
        <_>
          <internalNodes>
            0 -1 157 -1.0165322601096705e-04</internalNodes>
          <leafValues>
            2.3947714269161224e-01 -4.5597395300865173e-01</leafValues></_>
        <_>
          <internalNodes>
            0 -1 32 1.8729420844465494e-03</internalNodes>
          <leafValues>
            9.2025212943553925e-02 -8.8430786132812500e-01</leafValues></_>
        <_>
          <internalNodes>
            0 -1 265 -9.6969204023480415e-03</internalNodes>
          <leafValues>
            -8.8144147396087646e-01 1.2276948243379593e-01</leafValues></_>
        <_>
          <internalNodes>
            0 -1 195 -5.2501596510410309e-03</internalNodes>
          <leafValues>
            -6.6219389438629150e-01 1.0589519888162613e-01</leafValues></_>
        <_>
          <internalNodes>
            0 -1 112 -3.0948859057389200e-04</internalNodes>
          <leafValues>
            3.2348281145095825e-01 -2.7733743190765381e-01</leafValues></_>
        <_>
          <internalNodes>
            0 -1 191 1.4117109822109342e-03</internalNodes>
          <leafValues>
            1.8426944315433502e-01 -5.6599313020706177e-01</leafValues></_>
        <_>
          <internalNodes>
            0 -1 206 4.5883571146987379e-05</internalNodes>
          <leafValues>
            -3.3157846331596375e-01 2.8356742858886719e-01</leafValues></_></weakClassifiers></_>
    <!-- stage 18 -->
    <_>
      <maxWeakCount>9</maxWeakCount>
      <stageThreshold>-1.0195549726486206e+00</stageThreshold>
      <weakClassifiers>
        <_>
          <internalNodes>
            0 -1 197 -4.2323365807533264e-02</internalNodes>
          <leafValues>
            6.6666668653488159e-01 -5.3535354137420654e-01</leafValues></_>
        <_>
          <internalNodes>
            0 -1 146 -6.4589753746986389e-03</internalNodes>
          <leafValues>
            -7.3457062244415283e-01 7.4425205588340759e-02</leafValues></_>
        <_>
          <internalNodes>
            0 -1 254 1.1753001308534294e-04</internalNodes>
          <leafValues>
            -3.2225462794303894e-01 3.0098652839660645e-01</leafValues></_>
        <_>
          <internalNodes>
            0 -1 52 -2.0354106090962887e-03</internalNodes>
          <leafValues>
            3.8220191001892090e-01 -2.1610917150974274e-01</leafValues></_>
        <_>
          <internalNodes>
            0 -1 76 -1.0875723091885448e-04</internalNodes>
          <leafValues>
            3.4506717324256897e-01 -2.7185297012329102e-01</leafValues></_>
        <_>
          <internalNodes>
            0 -1 126 1.2851851060986519e-02</internalNodes>
          <leafValues>
            -1.3423667848110199e-01 7.2511327266693115e-01</leafValues></_>
        <_>
          <internalNodes>
            0 -1 110 -5.3889915347099304e-02</internalNodes>
          <leafValues>
            3.6358729004859924e-01 -2.6484945416450500e-01</leafValues></_>
        <_>
          <internalNodes>
            0 -1 214 -2.9681093990802765e-02</internalNodes>
          <leafValues>
            5.7771694660186768e-01 -1.6145129501819611e-01</leafValues></_>
        <_>
          <internalNodes>
            0 -1 145 1.3795263839710969e-05</internalNodes>
          <leafValues>
            -4.2803370952606201e-01 2.7117726206779480e-01</leafValues></_></weakClassifiers></_>
    <!-- stage 19 -->
    <_>
      <maxWeakCount>11</maxWeakCount>
      <stageThreshold>-1.1786484718322754e+00</stageThreshold>
      <weakClassifiers>
        <_>
          <internalNodes>
            0 -1 82 4.1924089193344116e-02</internalNodes>
          <leafValues>
            -5.3535354137420654e-01 6.6666668653488159e-01</leafValues></_>
        <_>
          <internalNodes>
            0 -1 259 4.3323626741766930e-03</internalNodes>
          <leafValues>
            3.9372537285089493e-02 -7.8846937417984009e-01</leafValues></_>
        <_>
          <internalNodes>
            0 -1 105 -1.4437267091125250e-03</internalNodes>
          <leafValues>
            5.3419291973114014e-01 -1.4114670455455780e-01</leafValues></_>
        <_>
          <internalNodes>
            0 -1 115 -1.2400995474308729e-03</internalNodes>
          <leafValues>
            -6.2610733509063721e-01 1.8707770109176636e-01</leafValues></_>
        <_>
          <internalNodes>
            0 -1 17 -6.2077529728412628e-03</internalNodes>
          <leafValues>
            4.5387825369834900e-01 -2.1431404352188110e-01</leafValues></_>
        <_>
          <internalNodes>
            0 -1 69 2.4388080928474665e-03</internalNodes>
          <leafValues>
            -2.4240970611572266e-01 3.7854614853858948e-01</leafValues></_>
        <_>
          <internalNodes>
            0 -1 125 1.3238444807939231e-04</internalNodes>
          <leafValues>
            -3.3534806966781616e-01 2.7743458747863770e-01</leafValues></_>
        <_>
          <internalNodes>
            0 -1 8 1.4189448207616806e-02</internalNodes>
          <leafValues>
            8.1324622035026550e-02 -1.</leafValues></_>
        <_>
          <internalNodes>
            0 -1 152 2.4100025184452534e-03</internalNodes>
          <leafValues>
            -2.6609006524085999e-01 3.5712817311286926e-01</leafValues></_>
        <_>
          <internalNodes>
            0 -1 85 7.2056218981742859e-02</internalNodes>
          <leafValues>
            -1.3816457986831665e-01 7.0656305551528931e-01</leafValues></_>
        <_>
          <internalNodes>
            0 -1 62 -7.0233987644314766e-03</internalNodes>
          <leafValues>
            4.1251766681671143e-01 -2.3455247282981873e-01</leafValues></_></weakClassifiers></_>
    <!-- stage 20 -->
    <_>
      <maxWeakCount>11</maxWeakCount>
      <stageThreshold>-8.5495543479919434e-01</stageThreshold>
      <weakClassifiers>
        <_>
          <internalNodes>
            0 -1 46 7.7616348862648010e-02</internalNodes>
          <leafValues>
            -5.3535354137420654e-01 6.6666668653488159e-01</leafValues></_>
        <_>
          <internalNodes>
            0 -1 98 1.8708385527133942e-02</internalNodes>
          <leafValues>
            -3.6083894968032837e-01 2.2455543279647827e-01</leafValues></_>
        <_>
          <internalNodes>
            0 -1 156 -1.5466494485735893e-02</internalNodes>
          <leafValues>
            3.5908663272857666e-01 -2.4306917190551758e-01</leafValues></_>
        <_>
          <internalNodes>
            0 -1 237 4.1341455653309822e-03</internalNodes>
          <leafValues>
            1.2116275727748871e-01 -7.4898052215576172e-01</leafValues></_>
        <_>
          <internalNodes>
            0 -1 100 3.2993308268487453e-03</internalNodes>
          <leafValues>
            -2.6589348912239075e-01 3.4632003307342529e-01</leafValues></_>
        <_>
          <internalNodes>
            0 -1 203 -3.6008050665259361e-04</internalNodes>
          <leafValues>
            4.6735212206840515e-01 -1.9342249631881714e-01</leafValues></_>
        <_>
          <internalNodes>
            0 -1 124 -6.7151803523302078e-03</internalNodes>
          <leafValues>
            4.9723750352859497e-01 -1.8152022361755371e-01</leafValues></_>
        <_>
          <internalNodes>
            0 -1 102 2.5837905704975128e-02</internalNodes>
          <leafValues>
            1.1743628233671188e-01 -1.</leafValues></_>
        <_>
          <internalNodes>
            0 -1 108 1.3561078812927008e-03</internalNodes>
          <leafValues>
            -3.3095675706863403e-01 2.6559454202651978e-01</leafValues></_>
        <_>
          <internalNodes>
            0 -1 12 8.3366017788648605e-03</internalNodes>
          <leafValues>
            1.4375796914100647e-01 -8.5531163215637207e-01</leafValues></_>
        <_>
          <internalNodes>
            0 -1 4 1.3757466804236174e-03</internalNodes>
          <leafValues>
            -3.1478685140609741e-01 2.8834781050682068e-01</leafValues></_></weakClassifiers></_>
    <!-- stage 21 -->
    <_>
      <maxWeakCount>13</maxWeakCount>
      <stageThreshold>-1.0429197549819946e+00</stageThreshold>
      <weakClassifiers>
        <_>
          <internalNodes>
            0 -1 20 9.5362223684787750e-02</internalNodes>
          <leafValues>
            -5.2882206439971924e-01 7.3333334922790527e-01</leafValues></_>
        <_>
          <internalNodes>
            0 -1 176 -3.4752860665321350e-03</internalNodes>
          <leafValues>
            -7.0595812797546387e-01 5.7237241417169571e-02</leafValues></_>
        <_>
          <internalNodes>
            0 -1 184 1.5247685369104147e-03</internalNodes>
          <leafValues>
            1.0105159133672714e-01 -7.5656825304031372e-01</leafValues></_>
        <_>
          <internalNodes>
            0 -1 15 4.5816982164978981e-03</internalNodes>
          <leafValues>
            -1.8850763142108917e-01 4.5082157850265503e-01</leafValues></_>
        <_>
          <internalNodes>
            0 -1 255 8.1871534348465502e-05</internalNodes>
          <leafValues>
            -3.6259806156158447e-01 2.4213144183158875e-01</leafValues></_>
        <_>
          <internalNodes>
            0 -1 153 5.9117260389029980e-03</internalNodes>
          <leafValues>
            -1.9307132065296173e-01 4.2393290996551514e-01</leafValues></_>
        <_>
          <internalNodes>
            0 -1 132 -4.9533145502209663e-03</internalNodes>
          <leafValues>
            6.3212442398071289e-01 -1.4503015577793121e-01</leafValues></_>
        <_>
          <internalNodes>
            0 -1 147 8.7288409471511841e-02</internalNodes>
          <leafValues>
            1.8989539146423340e-01 -5.7951426506042480e-01</leafValues></_>
        <_>
          <internalNodes>
            0 -1 188 -6.0649274382740259e-04</internalNodes>
          <leafValues>
            -7.4188768863677979e-01 1.1732671409845352e-01</leafValues></_>
        <_>
          <internalNodes>
            0 -1 211 -1.0384472261648625e-04</internalNodes>
          <leafValues>
            3.4485319256782532e-01 -2.9398921132087708e-01</leafValues></_>
        <_>
          <internalNodes>
            0 -1 242 2.2279897239059210e-03</internalNodes>
          <leafValues>
            -2.5213259458541870e-01 3.7754103541374207e-01</leafValues></_>
        <_>
          <internalNodes>
            0 -1 240 -6.3404743559658527e-04</internalNodes>
          <leafValues>
            5.4597556591033936e-01 -1.5717530250549316e-01</leafValues></_>
        <_>
          <internalNodes>
            0 -1 158 -1.1557498946785927e-02</internalNodes>
          <leafValues>
            -6.3697266578674316e-01 1.5435726940631866e-01</leafValues></_></weakClassifiers></_>
    <!-- stage 22 -->
    <_>
      <maxWeakCount>9</maxWeakCount>
      <stageThreshold>-9.2920935153961182e-01</stageThreshold>
      <weakClassifiers>
        <_>
          <internalNodes>
            0 -1 83 -1.3285318389534950e-02</internalNodes>
          <leafValues>
            6.1904764175415039e-01 -5.4198473691940308e-01</leafValues></_>
        <_>
          <internalNodes>
            0 -1 243 1.8899654969573021e-03</internalNodes>
          <leafValues>
            -2.7257809042930603e-01 3.7835952639579773e-01</leafValues></_>
        <_>
          <internalNodes>
            0 -1 256 1.4325587078928947e-02</internalNodes>
          <leafValues>
            1.8685199320316315e-01 -5.3558129072189331e-01</leafValues></_>
        <_>
          <internalNodes>
            0 -1 251 -2.7280105277895927e-03</internalNodes>
          <leafValues>
            4.4995474815368652e-01 -2.0101337134838104e-01</leafValues></_>
        <_>
          <internalNodes>
            0 -1 183 3.2786145806312561e-02</internalNodes>
          <leafValues>
            -2.0328487455844879e-01 5.2519237995147705e-01</leafValues></_>
        <_>
          <internalNodes>
            0 -1 181 -7.1587885031476617e-05</internalNodes>
          <leafValues>
            3.4019821882247925e-01 -3.0987334251403809e-01</leafValues></_>
        <_>
          <internalNodes>
            0 -1 236 -1.8962209578603506e-03</internalNodes>
          <leafValues>
            4.6092000603675842e-01 -1.9976910948753357e-01</leafValues></_>
        <_>
          <internalNodes>
            0 -1 245 1.0157849173992872e-03</internalNodes>
          <leafValues>
            -3.0097284913063049e-01 3.5045808553695679e-01</leafValues></_>
        <_>
          <internalNodes>
            0 -1 117 3.6214229185134172e-03</internalNodes>
          <leafValues>
            -1.7661498486995697e-01 5.3550595045089722e-01</leafValues></_></weakClassifiers></_>
    <!-- stage 23 -->
    <_>
      <maxWeakCount>10</maxWeakCount>
      <stageThreshold>-1.0114110708236694e+00</stageThreshold>
      <weakClassifiers>
        <_>
          <internalNodes>
            0 -1 80 -8.6689673364162445e-02</internalNodes>
          <leafValues>
            1. -5.1980197429656982e-01</leafValues></_>
        <_>
          <internalNodes>
            0 -1 81 -2.0151417702436447e-02</internalNodes>
          <leafValues>
            -1. 2.2981170564889908e-02</leafValues></_>
        <_>
          <internalNodes>
            0 -1 155 1.3651753775775433e-02</internalNodes>
          <leafValues>
            1.5414167940616608e-01 -5.7881778478622437e-01</leafValues></_>
        <_>
          <internalNodes>
            0 -1 56 3.7765782326459885e-03</internalNodes>
          <leafValues>
            -2.1969266235828400e-01 3.8684901595115662e-01</leafValues></_>
        <_>
          <internalNodes>
            0 -1 149 -2.2960668429732323e-03</internalNodes>
          <leafValues>
            7.9372286796569824e-01 -1.0475713759660721e-01</leafValues></_>
        <_>
          <internalNodes>
            0 -1 218 -3.0036009775358252e-05</internalNodes>
          <leafValues>
            2.5929665565490723e-01 -3.3540067076683044e-01</leafValues></_>
        <_>
          <internalNodes>
            0 -1 135 3.1596259213984013e-03</internalNodes>
          <leafValues>
            -1.5938037633895874e-01 5.2672678232192993e-01</leafValues></_>
        <_>
          <internalNodes>
            0 -1 228 8.6020654998719692e-04</internalNodes>
          <leafValues>
            1.4732117950916290e-01 -6.1072713136672974e-01</leafValues></_>
        <_>
          <internalNodes>
            0 -1 230 -6.3656130805611610e-03</internalNodes>
          <leafValues>
            7.0246756076812744e-01 -1.4142428338527679e-01</leafValues></_>
        <_>
          <internalNodes>
            0 -1 253 6.0202782042324543e-03</internalNodes>
          <leafValues>
            1.4460195600986481e-01 -7.2233998775482178e-01</leafValues></_></weakClassifiers></_>
    <!-- stage 24 -->
    <_>
      <maxWeakCount>11</maxWeakCount>
      <stageThreshold>-1.1430238485336304e+00</stageThreshold>
      <weakClassifiers>
        <_>
          <internalNodes>
            0 -1 96 1.3275640085339546e-02</internalNodes>
          <leafValues>
            -5.5789476633071899e-01 3.5294118523597717e-01</leafValues></_>
        <_>
          <internalNodes>
            0 -1 139 -1.1394610628485680e-02</internalNodes>
          <leafValues>
            5.3866440057754517e-01 -2.0085293054580688e-01</leafValues></_>
        <_>
          <internalNodes>
            0 -1 45 -2.3795114830136299e-03</internalNodes>
          <leafValues>
            3.1414729356765747e-01 -2.8020948171615601e-01</leafValues></_>
        <_>
          <internalNodes>
            0 -1 239 -9.5057794824242592e-03</internalNodes>
          <leafValues>
            -1. 8.3329252898693085e-02</leafValues></_>
        <_>
          <internalNodes>
            0 -1 133 5.9884344227612019e-04</internalNodes>
          <leafValues>
            -1.6406127810478210e-01 5.1939338445663452e-01</leafValues></_>
        <_>
          <internalNodes>
            0 -1 187 3.1653165817260742e-02</internalNodes>
          <leafValues>
            -1.7939171195030212e-01 5.5770856142044067e-01</leafValues></_>
        <_>
          <internalNodes>
            0 -1 109 -1.6861867159605026e-02</internalNodes>
          <leafValues>
            -8.1700497865676880e-01 1.1428986489772797e-01</leafValues></_>
        <_>
          <internalNodes>
            0 -1 136 1.1745445430278778e-02</internalNodes>
          <leafValues>
            -1.8875271081924438e-01 5.0748407840728760e-01</leafValues></_>
        <_>
          <internalNodes>
            0 -1 248 -1.0692903771996498e-02</internalNodes>
          <leafValues>
            -8.2166707515716553e-01 1.0635261237621307e-01</leafValues></_>
        <_>
          <internalNodes>
            0 -1 252 -3.5877623304259032e-05</internalNodes>
          <leafValues>
            2.4158360064029694e-01 -3.9686164259910583e-01</leafValues></_>
        <_>
          <internalNodes>
            0 -1 204 -2.0302522927522659e-02</internalNodes>
          <leafValues>
            9.6105009317398071e-01 -1.1741632968187332e-01</leafValues></_></weakClassifiers></_>
    <!-- stage 25 -->
    <_>
      <maxWeakCount>9</maxWeakCount>
      <stageThreshold>-7.9186010360717773e-01</stageThreshold>
      <weakClassifiers>
        <_>
          <internalNodes>
            0 -1 50 4.5788630843162537e-02</internalNodes>
          <leafValues>
            -5.2882206439971924e-01 7.3333334922790527e-01</leafValues></_>
        <_>
          <internalNodes>
            0 -1 232 5.0070229917764664e-04</internalNodes>
          <leafValues>
            -4.1005659103393555e-01 1.7328763008117676e-01</leafValues></_>
        <_>
          <internalNodes>
            0 -1 93 -1.8546958453953266e-03</internalNodes>
          <leafValues>
            -4.2955106496810913e-01 1.9226966798305511e-01</leafValues></_>
        <_>
          <internalNodes>
            0 -1 150 3.1343143200501800e-04</internalNodes>
          <leafValues>
            -2.8010094165802002e-01 2.7152502536773682e-01</leafValues></_>
        <_>
          <internalNodes>
            0 -1 16 1.4365398325026035e-02</internalNodes>
          <leafValues>
            1.2708365917205811e-01 -7.6251608133316040e-01</leafValues></_>
        <_>
          <internalNodes>
            0 -1 114 1.6579175367951393e-02</internalNodes>
          <leafValues>
            -8.8062852621078491e-02 9.4454556703567505e-01</leafValues></_>
        <_>
          <internalNodes>
            0 -1 38 2.2763462737202644e-02</internalNodes>
          <leafValues>
            1.8012760579586029e-01 -5.0080317258834839e-01</leafValues></_>
        <_>
          <internalNodes>
            0 -1 107 -9.9216736853122711e-03</internalNodes>
          <leafValues>
            3.4048539400100708e-01 -3.0899924039840698e-01</leafValues></_>
        <_>
          <internalNodes>
            0 -1 97 -9.1173639521002769e-04</internalNodes>
          <leafValues>
            5.7525706291198730e-01 -1.5700273215770721e-01</leafValues></_></weakClassifiers></_>
    <!-- stage 26 -->
    <_>
      <maxWeakCount>10</maxWeakCount>
      <stageThreshold>-8.8514924049377441e-01</stageThreshold>
      <weakClassifiers>
        <_>
          <internalNodes>
            0 -1 137 2.7413568459451199e-03</internalNodes>
          <leafValues>
            -5.5497384071350098e-01 3.7500000000000000e-01</leafValues></_>
        <_>
          <internalNodes>
            0 -1 168 -1.3595797121524811e-02</internalNodes>
          <leafValues>
            2.7554261684417725e-01 -3.5348057746887207e-01</leafValues></_>
        <_>
          <internalNodes>
            0 -1 166 7.1649854071438313e-03</internalNodes>
          <leafValues>
            7.3181249201297760e-02 -9.5829164981842041e-01</leafValues></_>
        <_>
          <internalNodes>
            0 -1 2 6.5974399447441101e-02</internalNodes>
          <leafValues>
            8.4576167166233063e-02 -9.5985335111618042e-01</leafValues></_>
        <_>
          <internalNodes>
            0 -1 10 -3.4842037130147219e-03</internalNodes>
          <leafValues>
            5.2357685565948486e-01 -1.5287080407142639e-01</leafValues></_>
        <_>
          <internalNodes>
            0 -1 25 -1.9403746118769050e-03</internalNodes>
          <leafValues>
            -5.6802618503570557e-01 1.5209464728832245e-01</leafValues></_>
        <_>
          <internalNodes>
            0 -1 87 3.0540790408849716e-02</internalNodes>
          <leafValues>
            -1.2108792364597321e-01 8.1968802213668823e-01</leafValues></_>
        <_>
          <internalNodes>
            0 -1 261 -1.3881787657737732e-02</internalNodes>
          <leafValues>
            -8.7579870223999023e-01 1.1176630854606628e-01</leafValues></_>
        <_>
          <internalNodes>
            0 -1 234 -2.5549464044161141e-04</internalNodes>
          <leafValues>
            -3.6292040348052979e-01 2.4230909347534180e-01</leafValues></_>
        <_>
          <internalNodes>
            0 -1 233 -4.0147180698113516e-05</internalNodes>
          <leafValues>
            3.2966351509094238e-01 -2.9513427615165710e-01</leafValues></_></weakClassifiers></_>
    <!-- stage 27 -->
    <_>
      <maxWeakCount>10</maxWeakCount>
      <stageThreshold>-8.0498445034027100e-01</stageThreshold>
      <weakClassifiers>
        <_>
          <internalNodes>
            0 -1 148 -1.1142749339342117e-02</internalNodes>
          <leafValues>
            8.7500000000000000e-01 -5.3768843412399292e-01</leafValues></_>
        <_>
          <internalNodes>
            0 -1 164 4.2845059186220169e-02</internalNodes>
          <leafValues>
            3.4163668751716614e-02 -9.0830451250076294e-01</leafValues></_>
        <_>
          <internalNodes>
            0 -1 174 2.6061190292239189e-03</internalNodes>
          <leafValues>
            -1.6346284747123718e-01 4.8648139834403992e-01</leafValues></_>
        <_>
          <internalNodes>
            0 -1 142 -4.8562116920948029e-02</internalNodes>
          <leafValues>
            6.7534095048904419e-01 -1.3808690011501312e-01</leafValues></_>
        <_>
          <internalNodes>
            0 -1 31 9.4508563051931560e-05</internalNodes>
          <leafValues>
            -2.9359480738639832e-01 3.7103796005249023e-01</leafValues></_>
        <_>
          <internalNodes>
            0 -1 75 3.1927175587043166e-04</internalNodes>
          <leafValues>
            -2.4737466871738434e-01 3.7613207101821899e-01</leafValues></_>
        <_>
          <internalNodes>
            0 -1 151 1.2574666179716587e-02</internalNodes>
          <leafValues>
            1.0945889353752136e-01 -7.7718621492385864e-01</leafValues></_>
        <_>
          <internalNodes>
            0 -1 225 -2.7789379237219691e-04</internalNodes>
          <leafValues>
            -3.7656313180923462e-01 2.5309824943542480e-01</leafValues></_>
        <_>
          <internalNodes>
            0 -1 144 8.8113988749682903e-04</internalNodes>
          <leafValues>
            -2.0528107881546021e-01 5.3872936964035034e-01</leafValues></_>
        <_>
          <internalNodes>
            0 -1 262 3.1593596213497221e-04</internalNodes>
          <leafValues>
            -2.3972323536872864e-01 4.2821356654167175e-01</leafValues></_></weakClassifiers></_>
    <!-- stage 28 -->
    <_>
      <maxWeakCount>10</maxWeakCount>
      <stageThreshold>-9.5683348178863525e-01</stageThreshold>
      <weakClassifiers>
        <_>
          <internalNodes>
            0 -1 3 -5.3265370428562164e-02</internalNodes>
          <leafValues>
            6.0000002384185791e-01 -5.3807103633880615e-01</leafValues></_>
        <_>
          <internalNodes>
            0 -1 18 2.1048903465270996e-02</internalNodes>
          <leafValues>
            3.7984468042850494e-02 -7.9304170608520508e-01</leafValues></_>
        <_>
          <internalNodes>
            0 -1 79 1.4445486012846231e-03</internalNodes>
          <leafValues>
            1.1249794811010361e-01 -6.9572120904922485e-01</leafValues></_>
        <_>
          <internalNodes>
            0 -1 72 2.2391659149434417e-04</internalNodes>
          <leafValues>
            -2.1439708769321442e-01 4.0311095118522644e-01</leafValues></_>
        <_>
          <internalNodes>
            0 -1 266 -1.5011586248874664e-02</internalNodes>
          <leafValues>
            -6.4957660436630249e-01 1.6827735304832458e-01</leafValues></_>
        <_>
          <internalNodes>
            0 -1 179 -1.2772199511528015e-01</internalNodes>
          <leafValues>
            6.3831681013107300e-01 -1.7859745025634766e-01</leafValues></_>
        <_>
          <internalNodes>
            0 -1 190 2.8800168074667454e-03</internalNodes>
          <leafValues>
            1.8321804702281952e-01 -6.4427900314331055e-01</leafValues></_>
        <_>
          <internalNodes>
            0 -1 235 6.8252009805291891e-04</internalNodes>
          <leafValues>
            -2.5348475575447083e-01 4.0904769301414490e-01</leafValues></_>
        <_>
          <internalNodes>
            0 -1 194 6.9441716186702251e-04</internalNodes>
          <leafValues>
            1.9141118228435516e-01 -5.5572795867919922e-01</leafValues></_>
        <_>
          <internalNodes>
            0 -1 40 3.7973871803842485e-04</internalNodes>
          <leafValues>
            -2.5215402245521545e-01 4.2700541019439697e-01</leafValues></_></weakClassifiers></_>
    <!-- stage 29 -->
    <_>
      <maxWeakCount>12</maxWeakCount>
      <stageThreshold>-1.2864272594451904e+00</stageThreshold>
      <weakClassifiers>
        <_>
          <internalNodes>
            0 -1 13 -1.2878711335361004e-02</internalNodes>
          <leafValues>
            4.6666666865348816e-01 -5.5729168653488159e-01</leafValues></_>
        <_>
          <internalNodes>
            0 -1 35 4.1627422906458378e-03</internalNodes>
          <leafValues>
            -2.7951577305793762e-01 3.2624131441116333e-01</leafValues></_>
        <_>
          <internalNodes>
            0 -1 250 -1.4412458986043930e-03</internalNodes>
          <leafValues>
            3.4229844808578491e-01 -2.7355855703353882e-01</leafValues></_>
        <_>
          <internalNodes>
            0 -1 90 -8.8302587391808629e-04</internalNodes>
          <leafValues>
            -5.2726018428802490e-01 1.8010677397251129e-01</leafValues></_>
        <_>
          <internalNodes>
            0 -1 227 -7.1528507396578789e-03</internalNodes>
          <leafValues>
            8.0992066860198975e-01 -1.0852012783288956e-01</leafValues></_>
        <_>
          <internalNodes>
            0 -1 165 -1.2212216388434172e-03</internalNodes>
          <leafValues>
            -4.5961591601371765e-01 2.2629110515117645e-01</leafValues></_>
        <_>
          <internalNodes>
            0 -1 231 6.2502617947757244e-04</internalNodes>
          <leafValues>
            -2.5686416029930115e-01 4.3867668509483337e-01</leafValues></_>
        <_>
          <internalNodes>
            0 -1 205 -1.2788876119884662e-05</internalNodes>
          <leafValues>
            3.4614697098731995e-01 -3.1549274921417236e-01</leafValues></_>
        <_>
          <internalNodes>
            0 -1 34 1.9481932395137846e-04</internalNodes>
          <leafValues>
            -3.2049298286437988e-01 3.5281208157539368e-01</leafValues></_>
        <_>
          <internalNodes>
            0 -1 258 2.2650277242064476e-04</internalNodes>
          <leafValues>
            -2.4508598446846008e-01 4.7898235917091370e-01</leafValues></_>
        <_>
          <internalNodes>
            0 -1 1 6.9615722168236971e-04</internalNodes>
          <leafValues>
            2.0661462843418121e-01 -5.5047971010208130e-01</leafValues></_>
        <_>
          <internalNodes>
            0 -1 229 1.0484175756573677e-02</internalNodes>
          <leafValues>
            -1.6810855269432068e-01 7.0452493429183960e-01</leafValues></_></weakClassifiers></_></stages>
  <features>
    <_>
      <rects>
        <_>
          0 0 3 11 -1.</_>
        <_>
          1 0 1 11 3.</_></rects>
      <tilted>0</tilted></_>
    <_>
      <rects>
        <_>
          0 0 3 2 -1.</_>
        <_>
          0 1 3 1 2.</_></rects>
      <tilted>0</tilted></_>
    <_>
      <rects>
        <_>
          0 0 10 9 -1.</_>
        <_>
          0 3 10 3 3.</_></rects>
      <tilted>0</tilted></_>
    <_>
      <rects>
        <_>
          0 1 4 15 -1.</_>
        <_>
          0 6 4 5 3.</_></rects>
      <tilted>0</tilted></_>
    <_>
      <rects>
        <_>
          0 1 11 6 -1.</_>
        <_>
          0 3 11 2 3.</_></rects>
      <tilted>0</tilted></_>
    <_>
      <rects>
        <_>
          0 3 2 12 -1.</_>
        <_>
          0 7 2 4 3.</_></rects>
      <tilted>0</tilted></_>
    <_>
      <rects>
        <_>
          0 4 3 1 -1.</_>
        <_>
          1 4 1 1 3.</_></rects>
      <tilted>0</tilted></_>
    <_>
      <rects>
        <_>
          0 5 1 12 -1.</_>
        <_>
          0 11 1 6 2.</_></rects>
      <tilted>0</tilted></_>
    <_>
      <rects>
        <_>
          0 5 6 6 -1.</_>
        <_>
          2 5 2 6 3.</_></rects>
      <tilted>0</tilted></_>
    <_>
      <rects>
        <_>
          0 5 27 10 -1.</_>
        <_>
          9 5 9 10 3.</_></rects>
      <tilted>0</tilted></_>
    <_>
      <rects>
        <_>
          0 6 3 10 -1.</_>
        <_>
          1 6 1 10 3.</_></rects>
      <tilted>0</tilted></_>
    <_>
      <rects>
        <_>
          0 6 12 7 -1.</_>
        <_>
          4 6 4 7 3.</_></rects>
      <tilted>0</tilted></_>
    <_>
      <rects>
        <_>
          0 7 1 12 -1.</_>
        <_>
          0 11 1 4 3.</_></rects>
      <tilted>0</tilted></_>
    <_>
      <rects>
        <_>
          0 8 4 7 -1.</_>
        <_>
          2 8 2 7 2.</_></rects>
      <tilted>0</tilted></_>
    <_>
      <rects>
        <_>
          0 8 8 8 -1.</_>
        <_>
          4 8 4 8 2.</_></rects>
      <tilted>0</tilted></_>
    <_>
      <rects>
        <_>
          0 9 20 3 -1.</_>
        <_>
          0 10 20 1 3.</_></rects>
      <tilted>0</tilted></_>
    <_>
      <rects>
        <_>
          0 10 3 9 -1.</_>
        <_>
          0 13 3 3 3.</_></rects>
      <tilted>0</tilted></_>
    <_>
      <rects>
        <_>
          0 11 10 1 -1.</_>
        <_>
          5 11 5 1 2.</_></rects>
      <tilted>0</tilted></_>
    <_>
      <rects>
        <_>
          0 12 4 12 -1.</_>
        <_>
          0 16 4 4 3.</_></rects>
      <tilted>0</tilted></_>
    <_>
      <rects>
        <_>
          0 12 24 3 -1.</_>
        <_>
          8 12 8 3 3.</_></rects>
      <tilted>0</tilted></_>
    <_>
      <rects>
        <_>
          0 14 27 2 -1.</_>
        <_>
          9 14 9 2 3.</_></rects>
      <tilted>0</tilted></_>
    <_>
      <rects>
        <_>
          0 15 1 6 -1.</_>
        <_>
          0 18 1 3 2.</_></rects>
      <tilted>0</tilted></_>
    <_>
      <rects>
        <_>
          0 15 6 9 -1.</_>
        <_>
          0 18 6 3 3.</_></rects>
      <tilted>0</tilted></_>
    <_>
      <rects>
        <_>
          0 16 3 6 -1.</_>
        <_>
          1 16 1 6 3.</_></rects>
      <tilted>0</tilted></_>
    <_>
      <rects>
        <_>
          0 17 4 6 -1.</_>
        <_>
          0 20 4 3 2.</_></rects>
      <tilted>0</tilted></_>
    <_>
      <rects>
        <_>
          0 20 4 4 -1.</_>
        <_>
          0 20 2 2 2.</_>
        <_>
          2 22 2 2 2.</_></rects>
      <tilted>0</tilted></_>
    <_>
      <rects>
        <_>
          0 23 12 1 -1.</_>
        <_>
          4 23 4 1 3.</_></rects>
      <tilted>0</tilted></_>
    <_>
      <rects>
        <_>
          1 0 22 18 -1.</_>
        <_>
          1 6 22 6 3.</_></rects>
      <tilted>0</tilted></_>
    <_>
      <rects>
        <_>
          1 1 8 8 -1.</_>
        <_>
          1 5 8 4 2.</_></rects>
      <tilted>0</tilted></_>
    <_>
      <rects>
        <_>
          1 1 27 17 -1.</_>
        <_>
          10 1 9 17 3.</_></rects>
      <tilted>0</tilted></_>
    <_>
      <rects>
        <_>
          1 1 19 6 -1.</_>
        <_>
          1 3 19 2 3.</_></rects>
      <tilted>0</tilted></_>
    <_>
      <rects>
        <_>
          1 3 2 1 -1.</_>
        <_>
          2 3 1 1 2.</_></rects>
      <tilted>0</tilted></_>
    <_>
      <rects>
        <_>
          1 3 3 3 -1.</_>
        <_>
          2 3 1 3 3.</_></rects>
      <tilted>0</tilted></_>
    <_>
      <rects>
        <_>
          1 3 14 10 -1.</_>
        <_>
          1 3 7 5 2.</_>
        <_>
          8 8 7 5 2.</_></rects>
      <tilted>0</tilted></_>
    <_>
      <rects>
        <_>
          1 4 2 3 -1.</_>
        <_>
          1 5 2 1 3.</_></rects>
      <tilted>0</tilted></_>
    <_>
      <rects>
        <_>
          1 6 6 9 -1.</_>
        <_>
          3 6 2 9 3.</_></rects>
      <tilted>0</tilted></_>
    <_>
      <rects>
        <_>
          1 6 27 7 -1.</_>
        <_>
          10 6 9 7 3.</_></rects>
      <tilted>0</tilted></_>
    <_>
      <rects>
        <_>
          1 7 27 5 -1.</_>
        <_>
          10 7 9 5 3.</_></rects>
      <tilted>0</tilted></_>
    <_>
      <rects>
        <_>
          1 11 26 2 -1.</_>
        <_>
          14 11 13 2 2.</_></rects>
      <tilted>0</tilted></_>
    <_>
      <rects>
        <_>
          1 12 3 12 -1.</_>
        <_>
          2 12 1 12 3.</_></rects>
      <tilted>0</tilted></_>
    <_>
      <rects>
        <_>
          1 13 3 1 -1.</_>
        <_>
          2 13 1 1 3.</_></rects>
      <tilted>0</tilted></_>
    <_>
      <rects>
        <_>
          1 17 8 3 -1.</_>
        <_>
          1 18 8 1 3.</_></rects>
      <tilted>0</tilted></_>
    <_>
      <rects>
        <_>
          1 17 12 3 -1.</_>
        <_>
          1 18 12 1 3.</_></rects>
      <tilted>0</tilted></_>
    <_>
      <rects>
        <_>
          1 20 9 2 -1.</_>
        <_>
          4 20 3 2 3.</_></rects>
      <tilted>0</tilted></_>
    <_>
      <rects>
        <_>
          2 0 9 1 -1.</_>
        <_>
          5 0 3 1 3.</_></rects>
      <tilted>0</tilted></_>
    <_>
      <rects>
        <_>
          2 0 25 2 -1.</_>
        <_>
          2 1 25 1 2.</_></rects>
      <tilted>0</tilted></_>
    <_>
      <rects>
        <_>
          2 2 10 10 -1.</_>
        <_>
          2 2 5 5 2.</_>
        <_>
          7 7 5 5 2.</_></rects>
      <tilted>0</tilted></_>
    <_>
      <rects>
        <_>
          2 2 21 20 -1.</_>
        <_>
          2 12 21 10 2.</_></rects>
      <tilted>0</tilted></_>
    <_>
      <rects>
        <_>
          2 3 2 2 -1.</_>
        <_>
          3 3 1 2 2.</_></rects>
      <tilted>0</tilted></_>
    <_>
      <rects>
        <_>
          2 3 1 6 -1.</_>
        <_>
          2 5 1 2 3.</_></rects>
      <tilted>0</tilted></_>
    <_>
      <rects>
        <_>
          2 4 16 4 -1.</_>
        <_>
          2 4 8 2 2.</_>
        <_>
          10 6 8 2 2.</_></rects>
      <tilted>0</tilted></_>
    <_>
      <rects>
        <_>
          2 5 16 4 -1.</_>
        <_>
          2 5 8 2 2.</_>
        <_>
          10 7 8 2 2.</_></rects>
      <tilted>0</tilted></_>
    <_>
      <rects>
        <_>
          2 6 2 4 -1.</_>
        <_>
          2 8 2 2 2.</_></rects>
      <tilted>0</tilted></_>
    <_>
      <rects>
        <_>
          2 10 6 3 -1.</_>
        <_>
          4 10 2 3 3.</_></rects>
      <tilted>0</tilted></_>
    <_>
      <rects>
        <_>
          2 13 2 2 -1.</_>
        <_>
          2 13 1 1 2.</_>
        <_>
          3 14 1 1 2.</_></rects>
      <tilted>0</tilted></_>
    <_>
      <rects>
        <_>
          2 15 24 9 -1.</_>
        <_>
          10 15 8 9 3.</_></rects>
      <tilted>0</tilted></_>
    <_>
      <rects>
        <_>
          2 20 10 4 -1.</_>
        <_>
          7 20 5 4 2.</_></rects>
      <tilted>0</tilted></_>
    <_>
      <rects>
        <_>
          3 0 4 24 -1.</_>
        <_>
          3 0 2 12 2.</_>
        <_>
          5 12 2 12 2.</_></rects>
      <tilted>0</tilted></_>
    <_>
      <rects>
        <_>
          3 1 10 19 -1.</_>
        <_>
          8 1 5 19 2.</_></rects>
      <tilted>0</tilted></_>
    <_>
      <rects>
        <_>
          3 1 14 2 -1.</_>
        <_>
          10 1 7 2 2.</_></rects>
      <tilted>0</tilted></_>
    <_>
      <rects>
        <_>
          3 3 6 3 -1.</_>
        <_>
          5 3 2 3 3.</_></rects>
      <tilted>0</tilted></_>
    <_>
      <rects>
        <_>
          3 3 4 7 -1.</_>
        <_>
          5 3 2 7 2.</_></rects>
      <tilted>0</tilted></_>
    <_>
      <rects>
        <_>
          3 3 14 4 -1.</_>
        <_>
          3 3 7 2 2.</_>
        <_>
          10 5 7 2 2.</_></rects>
      <tilted>0</tilted></_>
    <_>
      <rects>
        <_>
          3 4 14 3 -1.</_>
        <_>
          3 5 14 1 3.</_></rects>
      <tilted>0</tilted></_>
    <_>
      <rects>
        <_>
          3 8 2 2 -1.</_>
        <_>
          3 8 1 1 2.</_>
        <_>
          4 9 1 1 2.</_></rects>
      <tilted>0</tilted></_>
    <_>
      <rects>
        <_>
          3 8 9 8 -1.</_>
        <_>
          6 8 3 8 3.</_></rects>
      <tilted>0</tilted></_>
    <_>
      <rects>
        <_>
          3 9 8 7 -1.</_>
        <_>
          7 9 4 7 2.</_></rects>
      <tilted>0</tilted></_>
    <_>
      <rects>
        <_>
          3 9 10 4 -1.</_>
        <_>
          8 9 5 4 2.</_></rects>
      <tilted>0</tilted></_>
    <_>
      <rects>
        <_>
          3 10 3 5 -1.</_>
        <_>
          4 10 1 5 3.</_></rects>
      <tilted>0</tilted></_>
    <_>
      <rects>
        <_>
          3 11 9 3 -1.</_>
        <_>
          6 11 3 3 3.</_></rects>
      <tilted>0</tilted></_>
    <_>
      <rects>
        <_>
          3 12 2 2 -1.</_>
        <_>
          3 12 1 1 2.</_>
        <_>
          4 13 1 1 2.</_></rects>
      <tilted>0</tilted></_>
    <_>
      <rects>
        <_>
          3 13 2 2 -1.</_>
        <_>
          3 13 1 1 2.</_>
        <_>
          4 14 1 1 2.</_></rects>
      <tilted>0</tilted></_>
    <_>
      <rects>
        <_>
          3 16 2 2 -1.</_>
        <_>
          3 16 1 1 2.</_>
        <_>
          4 17 1 1 2.</_></rects>
      <tilted>0</tilted></_>
    <_>
      <rects>
        <_>
          3 19 9 3 -1.</_>
        <_>
          6 19 3 3 3.</_></rects>
      <tilted>0</tilted></_>
    <_>
      <rects>
        <_>
          3 20 4 4 -1.</_>
        <_>
          3 20 2 2 2.</_>
        <_>
          5 22 2 2 2.</_></rects>
      <tilted>0</tilted></_>
    <_>
      <rects>
        <_>
          3 20 6 2 -1.</_>
        <_>
          3 20 3 1 2.</_>
        <_>
          6 21 3 1 2.</_></rects>
      <tilted>0</tilted></_>
    <_>
      <rects>
        <_>
          3 21 3 1 -1.</_>
        <_>
          4 21 1 1 3.</_></rects>
      <tilted>0</tilted></_>
    <_>
      <rects>
        <_>
          3 22 5 2 -1.</_>
        <_>
          3 23 5 1 2.</_></rects>
      <tilted>0</tilted></_>
    <_>
      <rects>
        <_>
          4 0 19 18 -1.</_>
        <_>
          4 6 19 6 3.</_></rects>
      <tilted>0</tilted></_>
    <_>
      <rects>
        <_>
          4 1 2 3 -1.</_>
        <_>
          5 1 1 3 2.</_></rects>
      <tilted>0</tilted></_>
    <_>
      <rects>
        <_>
          4 2 4 14 -1.</_>
        <_>
          4 9 4 7 2.</_></rects>
      <tilted>0</tilted></_>
    <_>
      <rects>
        <_>
          4 3 1 18 -1.</_>
        <_>
          4 12 1 9 2.</_></rects>
      <tilted>0</tilted></_>
    <_>
      <rects>
        <_>
          4 3 10 6 -1.</_>
        <_>
          4 3 5 3 2.</_>
        <_>
          9 6 5 3 2.</_></rects>
      <tilted>0</tilted></_>
    <_>
      <rects>
        <_>
          4 8 4 10 -1.</_>
        <_>
          4 8 2 5 2.</_>
        <_>
          6 13 2 5 2.</_></rects>
      <tilted>0</tilted></_>
    <_>
      <rects>
        <_>
          4 10 10 14 -1.</_>
        <_>
          4 17 10 7 2.</_></rects>
      <tilted>0</tilted></_>
    <_>
      <rects>
        <_>
          4 10 13 8 -1.</_>
        <_>
          4 14 13 4 2.</_></rects>
      <tilted>0</tilted></_>
    <_>
      <rects>
        <_>
          4 11 3 2 -1.</_>
        <_>
          4 12 3 1 2.</_></rects>
      <tilted>0</tilted></_>
    <_>
      <rects>
        <_>
          4 15 21 1 -1.</_>
        <_>
          11 15 7 1 3.</_></rects>
      <tilted>0</tilted></_>
    <_>
      <rects>
        <_>
          4 19 6 2 -1.</_>
        <_>
          4 19 3 1 2.</_>
        <_>
          7 20 3 1 2.</_></rects>
      <tilted>0</tilted></_>
    <_>
      <rects>
        <_>
          5 0 17 10 -1.</_>
        <_>
          5 5 17 5 2.</_></rects>
      <tilted>0</tilted></_>
    <_>
      <rects>
        <_>
          5 1 6 1 -1.</_>
        <_>
          7 1 2 1 3.</_></rects>
      <tilted>0</tilted></_>
    <_>
      <rects>
        <_>
          5 5 7 3 -1.</_>
        <_>
          5 6 7 1 3.</_></rects>
      <tilted>0</tilted></_>
    <_>
      <rects>
        <_>
          5 5 22 3 -1.</_>
        <_>
          5 6 22 1 3.</_></rects>
      <tilted>0</tilted></_>
    <_>
      <rects>
        <_>
          5 11 6 2 -1.</_>
        <_>
          5 12 6 1 2.</_></rects>
      <tilted>0</tilted></_>
    <_>
      <rects>
        <_>
          5 11 21 5 -1.</_>
        <_>
          12 11 7 5 3.</_></rects>
      <tilted>0</tilted></_>
    <_>
      <rects>
        <_>
          5 12 9 4 -1.</_>
        <_>
          8 12 3 4 3.</_></rects>
      <tilted>0</tilted></_>
    <_>
      <rects>
        <_>
          5 13 4 4 -1.</_>
        <_>
          7 13 2 4 2.</_></rects>
      <tilted>0</tilted></_>
    <_>
      <rects>
        <_>
          5 15 2 2 -1.</_>
        <_>
          5 15 1 1 2.</_>
        <_>
          6 16 1 1 2.</_></rects>
      <tilted>0</tilted></_>
    <_>
      <rects>
        <_>
          6 1 22 8 -1.</_>
        <_>
          6 1 11 4 2.</_>
        <_>
          17 5 11 4 2.</_></rects>
      <tilted>0</tilted></_>
    <_>
      <rects>
        <_>
          6 1 18 14 -1.</_>
        <_>
          6 8 18 7 2.</_></rects>
      <tilted>0</tilted></_>
    <_>
      <rects>
        <_>
          6 2 4 9 -1.</_>
        <_>
          6 5 4 3 3.</_></rects>
      <tilted>0</tilted></_>
    <_>
      <rects>
        <_>
          6 2 13 6 -1.</_>
        <_>
          6 4 13 2 3.</_></rects>
      <tilted>0</tilted></_>
    <_>
      <rects>
        <_>
          6 3 6 14 -1.</_>
        <_>
          8 3 2 14 3.</_></rects>
      <tilted>0</tilted></_>
    <_>
      <rects>
        <_>
          6 3 14 3 -1.</_>
        <_>
          6 4 14 1 3.</_></rects>
      <tilted>0</tilted></_>
    <_>
      <rects>
        <_>
          6 5 18 15 -1.</_>
        <_>
          6 10 18 5 3.</_></rects>
      <tilted>0</tilted></_>
    <_>
      <rects>
        <_>
          6 8 1 3 -1.</_>
        <_>
          6 9 1 1 3.</_></rects>
      <tilted>0</tilted></_>
    <_>
      <rects>
        <_>
          6 10 18 14 -1.</_>
        <_>
          12 10 6 14 3.</_></rects>
      <tilted>0</tilted></_>
    <_>
      <rects>
        <_>
          6 11 12 10 -1.</_>
        <_>
          6 11 6 5 2.</_>
        <_>
          12 16 6 5 2.</_></rects>
      <tilted>0</tilted></_>
    <_>
      <rects>
        <_>
          6 15 6 6 -1.</_>
        <_>
          8 15 2 6 3.</_></rects>
      <tilted>0</tilted></_>
    <_>
      <rects>
        <_>
          7 0 6 15 -1.</_>
        <_>
          9 0 2 15 3.</_></rects>
      <tilted>0</tilted></_>
    <_>
      <rects>
        <_>
          7 0 20 20 -1.</_>
        <_>
          7 0 10 10 2.</_>
        <_>
          17 10 10 10 2.</_></rects>
      <tilted>0</tilted></_>
    <_>
      <rects>
        <_>
          7 2 12 6 -1.</_>
        <_>
          7 4 12 2 3.</_></rects>
      <tilted>0</tilted></_>
    <_>
      <rects>
        <_>
          7 3 2 4 -1.</_>
        <_>
          7 3 1 2 2.</_>
        <_>
          8 5 1 2 2.</_></rects>
      <tilted>0</tilted></_>
    <_>
      <rects>
        <_>
          7 9 12 11 -1.</_>
        <_>
          11 9 4 11 3.</_></rects>
      <tilted>0</tilted></_>
    <_>
      <rects>
        <_>
          7 10 1 12 -1.</_>
        <_>
          7 14 1 4 3.</_></rects>
      <tilted>0</tilted></_>
    <_>
      <rects>
        <_>
          7 12 3 2 -1.</_>
        <_>
          8 12 1 2 3.</_></rects>
      <tilted>0</tilted></_>
    <_>
      <rects>
        <_>
          7 12 4 2 -1.</_>
        <_>
          7 12 2 1 2.</_>
        <_>
          9 13 2 1 2.</_></rects>
      <tilted>0</tilted></_>
    <_>
      <rects>
        <_>
          7 14 9 3 -1.</_>
        <_>
          7 15 9 1 3.</_></rects>
      <tilted>0</tilted></_>
    <_>
      <rects>
        <_>
          8 0 9 1 -1.</_>
        <_>
          11 0 3 1 3.</_></rects>
      <tilted>0</tilted></_>
    <_>
      <rects>
        <_>
          8 0 11 12 -1.</_>
        <_>
          8 4 11 4 3.</_></rects>
      <tilted>0</tilted></_>
    <_>
      <rects>
        <_>
          8 2 4 6 -1.</_>
        <_>
          8 4 4 2 3.</_></rects>
      <tilted>0</tilted></_>
    <_>
      <rects>
        <_>
          8 2 7 9 -1.</_>
        <_>
          8 5 7 3 3.</_></rects>
      <tilted>0</tilted></_>
    <_>
      <rects>
        <_>
          8 4 14 12 -1.</_>
        <_>
          8 8 14 4 3.</_></rects>
      <tilted>0</tilted></_>
    <_>
      <rects>
        <_>
          8 5 15 9 -1.</_>
        <_>
          8 8 15 3 3.</_></rects>
      <tilted>0</tilted></_>
    <_>
      <rects>
        <_>
          8 10 1 10 -1.</_>
        <_>
          8 15 1 5 2.</_></rects>
      <tilted>0</tilted></_>
    <_>
      <rects>
        <_>
          8 11 6 5 -1.</_>
        <_>
          10 11 2 5 3.</_></rects>
      <tilted>0</tilted></_>
    <_>
      <rects>
        <_>
          8 17 10 4 -1.</_>
        <_>
          8 17 5 2 2.</_>
        <_>
          13 19 5 2 2.</_></rects>
      <tilted>0</tilted></_>
    <_>
      <rects>
        <_>
          8 18 3 1 -1.</_>
        <_>
          9 18 1 1 3.</_></rects>
      <tilted>0</tilted></_>
    <_>
      <rects>
        <_>
          9 1 10 9 -1.</_>
        <_>
          9 4 10 3 3.</_></rects>
      <tilted>0</tilted></_>
    <_>
      <rects>
        <_>
          9 2 11 9 -1.</_>
        <_>
          9 5 11 3 3.</_></rects>
      <tilted>0</tilted></_>
    <_>
      <rects>
        <_>
          9 2 12 21 -1.</_>
        <_>
          9 9 12 7 3.</_></rects>
      <tilted>0</tilted></_>
    <_>
      <rects>
        <_>
          9 8 10 4 -1.</_>
        <_>
          9 10 10 2 2.</_></rects>
      <tilted>0</tilted></_>
    <_>
      <rects>
        <_>
          9 17 5 3 -1.</_>
        <_>
          9 18 5 1 3.</_></rects>
      <tilted>0</tilted></_>
    <_>
      <rects>
        <_>
          9 23 3 1 -1.</_>
        <_>
          10 23 1 1 3.</_></rects>
      <tilted>0</tilted></_>
    <_>
      <rects>
        <_>
          10 0 4 8 -1.</_>
        <_>
          10 4 4 4 2.</_></rects>
      <tilted>0</tilted></_>
    <_>
      <rects>
        <_>
          10 1 12 2 -1.</_>
        <_>
          10 1 6 1 2.</_>
        <_>
          16 2 6 1 2.</_></rects>
      <tilted>0</tilted></_>
    <_>
      <rects>
        <_>
          10 4 9 7 -1.</_>
        <_>
          13 4 3 7 3.</_></rects>
      <tilted>0</tilted></_>
    <_>
      <rects>
        <_>
          10 5 1 3 -1.</_>
        <_>
          10 6 1 1 3.</_></rects>
      <tilted>0</tilted></_>
    <_>
      <rects>
        <_>
          10 5 7 3 -1.</_>
        <_>
          10 6 7 1 3.</_></rects>
      <tilted>0</tilted></_>
    <_>
      <rects>
        <_>
          10 8 12 3 -1.</_>
        <_>
          10 9 12 1 3.</_></rects>
      <tilted>0</tilted></_>
    <_>
      <rects>
        <_>
          10 9 2 2 -1.</_>
        <_>
          11 9 1 2 2.</_></rects>
      <tilted>0</tilted></_>
    <_>
      <rects>
        <_>
          10 10 3 14 -1.</_>
        <_>
          10 17 3 7 2.</_></rects>
      <tilted>0</tilted></_>
    <_>
      <rects>
        <_>
          10 12 12 6 -1.</_>
        <_>
          10 15 12 3 2.</_></rects>
      <tilted>0</tilted></_>
    <_>
      <rects>
        <_>
          10 20 4 2 -1.</_>
        <_>
          10 20 2 1 2.</_>
        <_>
          12 21 2 1 2.</_></rects>
      <tilted>0</tilted></_>
    <_>
      <rects>
        <_>
          10 21 3 2 -1.</_>
        <_>
          11 21 1 2 3.</_></rects>
      <tilted>0</tilted></_>
    <_>
      <rects>
        <_>
          10 21 18 3 -1.</_>
        <_>
          10 22 18 1 3.</_></rects>
      <tilted>0</tilted></_>
    <_>
      <rects>
        <_>
          10 23 18 1 -1.</_>
        <_>
          16 23 6 1 3.</_></rects>
      <tilted>0</tilted></_>
    <_>
      <rects>
        <_>
          11 0 7 24 -1.</_>
        <_>
          11 12 7 12 2.</_></rects>
      <tilted>0</tilted></_>
    <_>
      <rects>
        <_>
          11 2 5 3 -1.</_>
        <_>
          11 3 5 1 3.</_></rects>
      <tilted>0</tilted></_>
    <_>
      <rects>
        <_>
          11 3 1 2 -1.</_>
        <_>
          11 4 1 1 2.</_></rects>
      <tilted>0</tilted></_>
    <_>
      <rects>
        <_>
          11 4 4 3 -1.</_>
        <_>
          11 5 4 1 3.</_></rects>
      <tilted>0</tilted></_>
    <_>
      <rects>
        <_>
          11 5 6 9 -1.</_>
        <_>
          13 5 2 9 3.</_></rects>
      <tilted>0</tilted></_>
    <_>
      <rects>
        <_>
          11 6 6 6 -1.</_>
        <_>
          13 6 2 6 3.</_></rects>
      <tilted>0</tilted></_>
    <_>
      <rects>
        <_>
          11 15 6 6 -1.</_>
        <_>
          11 17 6 2 3.</_></rects>
      <tilted>0</tilted></_>
    <_>
      <rects>
        <_>
          11 17 8 4 -1.</_>
        <_>
          11 17 4 2 2.</_>
        <_>
          15 19 4 2 2.</_></rects>
      <tilted>0</tilted></_>
    <_>
      <rects>
        <_>
          12 0 6 15 -1.</_>
        <_>
          14 0 2 15 3.</_></rects>
      <tilted>0</tilted></_>
    <_>
      <rects>
        <_>
          12 0 15 21 -1.</_>
        <_>
          17 0 5 21 3.</_></rects>
      <tilted>0</tilted></_>
    <_>
      <rects>
        <_>
          12 1 3 19 -1.</_>
        <_>
          13 1 1 19 3.</_></rects>
      <tilted>0</tilted></_>
    <_>
      <rects>
        <_>
          12 2 6 16 -1.</_>
        <_>
          14 2 2 16 3.</_></rects>
      <tilted>0</tilted></_>
    <_>
      <rects>
        <_>
          12 3 4 6 -1.</_>
        <_>
          12 5 4 2 3.</_></rects>
      <tilted>0</tilted></_>
    <_>
      <rects>
        <_>
          12 5 16 4 -1.</_>
        <_>
          12 5 8 2 2.</_>
        <_>
          20 7 8 2 2.</_></rects>
      <tilted>0</tilted></_>
    <_>
      <rects>
        <_>
          12 6 2 6 -1.</_>
        <_>
          12 8 2 2 3.</_></rects>
      <tilted>0</tilted></_>
    <_>
      <rects>
        <_>
          12 6 7 3 -1.</_>
        <_>
          12 7 7 1 3.</_></rects>
      <tilted>0</tilted></_>
    <_>
      <rects>
        <_>
          12 11 12 3 -1.</_>
        <_>
          16 11 4 3 3.</_></rects>
      <tilted>0</tilted></_>
    <_>
      <rects>
        <_>
          12 11 15 6 -1.</_>
        <_>
          12 13 15 2 3.</_></rects>
      <tilted>0</tilted></_>
    <_>
      <rects>
        <_>
          12 12 4 4 -1.</_>
        <_>
          12 12 2 2 2.</_>
        <_>
          14 14 2 2 2.</_></rects>
      <tilted>0</tilted></_>
    <_>
      <rects>
        <_>
          12 22 6 2 -1.</_>
        <_>
          14 22 2 2 3.</_></rects>
      <tilted>0</tilted></_>
    <_>
      <rects>
        <_>
          13 0 15 4 -1.</_>
        <_>
          18 0 5 4 3.</_></rects>
      <tilted>0</tilted></_>
    <_>
      <rects>
        <_>
          13 0 14 6 -1.</_>
        <_>
          13 3 14 3 2.</_></rects>
      <tilted>0</tilted></_>
    <_>
      <rects>
        <_>
          13 5 12 3 -1.</_>
        <_>
          17 5 4 3 3.</_></rects>
      <tilted>0</tilted></_>
    <_>
      <rects>
        <_>
          13 6 6 3 -1.</_>
        <_>
          15 6 2 3 3.</_></rects>
      <tilted>0</tilted></_>
    <_>
      <rects>
        <_>
          13 6 5 3 -1.</_>
        <_>
          13 7 5 1 3.</_></rects>
      <tilted>0</tilted></_>
    <_>
      <rects>
        <_>
          13 8 15 11 -1.</_>
        <_>
          18 8 5 11 3.</_></rects>
      <tilted>0</tilted></_>
    <_>
      <rects>
        <_>
          13 10 14 14 -1.</_>
        <_>
          13 10 7 7 2.</_>
        <_>
          20 17 7 7 2.</_></rects>
      <tilted>0</tilted></_>
    <_>
      <rects>
        <_>
          13 11 3 9 -1.</_>
        <_>
          14 11 1 9 3.</_></rects>
      <tilted>0</tilted></_>
    <_>
      <rects>
        <_>
          13 14 8 3 -1.</_>
        <_>
          13 15 8 1 3.</_></rects>
      <tilted>0</tilted></_>
    <_>
      <rects>
        <_>
          13 21 6 3 -1.</_>
        <_>
          15 21 2 3 3.</_></rects>
      <tilted>0</tilted></_>
    <_>
      <rects>
        <_>
          14 0 6 9 -1.</_>
        <_>
          16 0 2 9 3.</_></rects>
      <tilted>0</tilted></_>
    <_>
      <rects>
        <_>
          14 2 14 8 -1.</_>
        <_>
          14 2 7 4 2.</_>
        <_>
          21 6 7 4 2.</_></rects>
      <tilted>0</tilted></_>
    <_>
      <rects>
        <_>
          14 4 10 18 -1.</_>
        <_>
          14 10 10 6 3.</_></rects>
      <tilted>0</tilted></_>
    <_>
      <rects>
        <_>
          14 7 10 4 -1.</_>
        <_>
          14 7 5 2 2.</_>
        <_>
          19 9 5 2 2.</_></rects>
      <tilted>0</tilted></_>
    <_>
      <rects>
        <_>
          14 13 1 2 -1.</_>
        <_>
          14 14 1 1 2.</_></rects>
      <tilted>0</tilted></_>
    <_>
      <rects>
        <_>
          15 0 4 24 -1.</_>
        <_>
          15 8 4 8 3.</_></rects>
      <tilted>0</tilted></_>
    <_>
      <rects>
        <_>
          15 0 12 9 -1.</_>
        <_>
          21 0 6 9 2.</_></rects>
      <tilted>0</tilted></_>
    <_>
      <rects>
        <_>
          15 1 2 3 -1.</_>
        <_>
          16 1 1 3 2.</_></rects>
      <tilted>0</tilted></_>
    <_>
      <rects>
        <_>
          15 5 5 6 -1.</_>
        <_>
          15 7 5 2 3.</_></rects>
      <tilted>0</tilted></_>
    <_>
      <rects>
        <_>
          15 7 10 4 -1.</_>
        <_>
          15 7 5 2 2.</_>
        <_>
          20 9 5 2 2.</_></rects>
      <tilted>0</tilted></_>
    <_>
      <rects>
        <_>
          15 10 4 14 -1.</_>
        <_>
          15 17 4 7 2.</_></rects>
      <tilted>0</tilted></_>
    <_>
      <rects>
        <_>
          15 15 2 1 -1.</_>
        <_>
          16 15 1 1 2.</_></rects>
      <tilted>0</tilted></_>
    <_>
      <rects>
        <_>
          15 20 6 4 -1.</_>
        <_>
          17 20 2 4 3.</_></rects>
      <tilted>0</tilted></_>
    <_>
      <rects>
        <_>
          16 2 2 16 -1.</_>
        <_>
          16 2 1 8 2.</_>
        <_>
          17 10 1 8 2.</_></rects>
      <tilted>0</tilted></_>
    <_>
      <rects>
        <_>
          16 4 6 1 -1.</_>
        <_>
          18 4 2 1 3.</_></rects>
      <tilted>0</tilted></_>
    <_>
      <rects>
        <_>
          16 4 8 6 -1.</_>
        <_>
          16 4 4 3 2.</_>
        <_>
          20 7 4 3 2.</_></rects>
      <tilted>0</tilted></_>
    <_>
      <rects>
        <_>
          16 7 6 3 -1.</_>
        <_>
          16 8 6 1 3.</_></rects>
      <tilted>0</tilted></_>
    <_>
      <rects>
        <_>
          16 12 1 3 -1.</_>
        <_>
          16 13 1 1 3.</_></rects>
      <tilted>0</tilted></_>
    <_>
      <rects>
        <_>
          16 14 6 3 -1.</_>
        <_>
          18 14 2 3 3.</_></rects>
      <tilted>0</tilted></_>
    <_>
      <rects>
        <_>
          16 20 4 2 -1.</_>
        <_>
          16 20 2 1 2.</_>
        <_>
          18 21 2 1 2.</_></rects>
      <tilted>0</tilted></_>
    <_>
      <rects>
        <_>
          17 0 2 12 -1.</_>
        <_>
          17 4 2 4 3.</_></rects>
      <tilted>0</tilted></_>
    <_>
      <rects>
        <_>
          17 0 9 1 -1.</_>
        <_>
          20 0 3 1 3.</_></rects>
      <tilted>0</tilted></_>
    <_>
      <rects>
        <_>
          17 1 3 9 -1.</_>
        <_>
          17 4 3 3 3.</_></rects>
      <tilted>0</tilted></_>
    <_>
      <rects>
        <_>
          17 4 8 8 -1.</_>
        <_>
          17 4 4 4 2.</_>
        <_>
          21 8 4 4 2.</_></rects>
      <tilted>0</tilted></_>
    <_>
      <rects>
        <_>
          17 7 8 3 -1.</_>
        <_>
          21 7 4 3 2.</_></rects>
      <tilted>0</tilted></_>
    <_>
      <rects>
        <_>
          17 19 11 3 -1.</_>
        <_>
          17 20 11 1 3.</_></rects>
      <tilted>0</tilted></_>
    <_>
      <rects>
        <_>
          18 2 2 2 -1.</_>
        <_>
          18 2 1 1 2.</_>
        <_>
          19 3 1 1 2.</_></rects>
      <tilted>0</tilted></_>
    <_>
      <rects>
        <_>
          18 5 8 4 -1.</_>
        <_>
          18 5 4 2 2.</_>
        <_>
          22 7 4 2 2.</_></rects>
      <tilted>0</tilted></_>
    <_>
      <rects>
        <_>
          18 6 2 2 -1.</_>
        <_>
          18 6 1 1 2.</_>
        <_>
          19 7 1 1 2.</_></rects>
      <tilted>0</tilted></_>
    <_>
      <rects>
        <_>
          18 14 2 2 -1.</_>
        <_>
          19 14 1 2 2.</_></rects>
      <tilted>0</tilted></_>
    <_>
      <rects>
        <_>
          18 15 6 5 -1.</_>
        <_>
          20 15 2 5 3.</_></rects>
      <tilted>0</tilted></_>
    <_>
      <rects>
        <_>
          18 23 8 1 -1.</_>
        <_>
          22 23 4 1 2.</_></rects>
      <tilted>0</tilted></_>
    <_>
      <rects>
        <_>
          19 0 3 6 -1.</_>
        <_>
          20 0 1 6 3.</_></rects>
      <tilted>0</tilted></_>
    <_>
      <rects>
        <_>
          19 1 6 4 -1.</_>
        <_>
          21 1 2 4 3.</_></rects>
      <tilted>0</tilted></_>
    <_>
      <rects>
        <_>
          19 2 3 2 -1.</_>
        <_>
          20 2 1 2 3.</_></rects>
      <tilted>0</tilted></_>
    <_>
      <rects>
        <_>
          19 4 3 9 -1.</_>
        <_>
          19 7 3 3 3.</_></rects>
      <tilted>0</tilted></_>
    <_>
      <rects>
        <_>
          19 7 8 3 -1.</_>
        <_>
          23 7 4 3 2.</_></rects>
      <tilted>0</tilted></_>
    <_>
      <rects>
        <_>
          19 9 8 8 -1.</_>
        <_>
          23 9 4 8 2.</_></rects>
      <tilted>0</tilted></_>
    <_>
      <rects>
        <_>
          19 14 2 1 -1.</_>
        <_>
          20 14 1 1 2.</_></rects>
      <tilted>0</tilted></_>
    <_>
      <rects>
        <_>
          19 16 9 2 -1.</_>
        <_>
          22 16 3 2 3.</_></rects>
      <tilted>0</tilted></_>
    <_>
      <rects>
        <_>
          19 18 1 6 -1.</_>
        <_>
          19 20 1 2 3.</_></rects>
      <tilted>0</tilted></_>
    <_>
      <rects>
        <_>
          19 20 2 4 -1.</_>
        <_>
          19 22 2 2 2.</_></rects>
      <tilted>0</tilted></_>
    <_>
      <rects>
        <_>
          20 1 2 1 -1.</_>
        <_>
          21 1 1 1 2.</_></rects>
      <tilted>0</tilted></_>
    <_>
      <rects>
        <_>
          20 5 4 4 -1.</_>
        <_>
          20 5 2 2 2.</_>
        <_>
          22 7 2 2 2.</_></rects>
      <tilted>0</tilted></_>
    <_>
      <rects>
        <_>
          20 5 3 4 -1.</_>
        <_>
          20 7 3 2 2.</_></rects>
      <tilted>0</tilted></_>
    <_>
      <rects>
        <_>
          20 7 6 16 -1.</_>
        <_>
          23 7 3 16 2.</_></rects>
      <tilted>0</tilted></_>
    <_>
      <rects>
        <_>
          20 11 3 7 -1.</_>
        <_>
          21 11 1 7 3.</_></rects>
      <tilted>0</tilted></_>
    <_>
      <rects>
        <_>
          20 13 6 4 -1.</_>
        <_>
          20 13 3 2 2.</_>
        <_>
          23 15 3 2 2.</_></rects>
      <tilted>0</tilted></_>
    <_>
      <rects>
        <_>
          20 18 4 3 -1.</_>
        <_>
          20 19 4 1 3.</_></rects>
      <tilted>0</tilted></_>
    <_>
      <rects>
        <_>
          21 0 6 21 -1.</_>
        <_>
          23 0 2 21 3.</_></rects>
      <tilted>0</tilted></_>
    <_>
      <rects>
        <_>
          21 1 2 16 -1.</_>
        <_>
          21 1 1 8 2.</_>
        <_>
          22 9 1 8 2.</_></rects>
      <tilted>0</tilted></_>
    <_>
      <rects>
        <_>
          21 2 2 3 -1.</_>
        <_>
          22 2 1 3 2.</_></rects>
      <tilted>0</tilted></_>
    <_>
      <rects>
        <_>
          21 2 4 10 -1.</_>
        <_>
          23 2 2 10 2.</_></rects>
      <tilted>0</tilted></_>
    <_>
      <rects>
        <_>
          21 3 2 12 -1.</_>
        <_>
          21 3 1 6 2.</_>
        <_>
          22 9 1 6 2.</_></rects>
      <tilted>0</tilted></_>
    <_>
      <rects>
        <_>
          21 3 6 2 -1.</_>
        <_>
          21 3 3 1 2.</_>
        <_>
          24 4 3 1 2.</_></rects>
      <tilted>0</tilted></_>
    <_>
      <rects>
        <_>
          21 3 5 6 -1.</_>
        <_>
          21 5 5 2 3.</_></rects>
      <tilted>0</tilted></_>
    <_>
      <rects>
        <_>
          21 4 1 3 -1.</_>
        <_>
          21 5 1 1 3.</_></rects>
      <tilted>0</tilted></_>
    <_>
      <rects>
        <_>
          21 7 2 7 -1.</_>
        <_>
          22 7 1 7 2.</_></rects>
      <tilted>0</tilted></_>
    <_>
      <rects>
        <_>
          21 14 6 1 -1.</_>
        <_>
          23 14 2 1 3.</_></rects>
      <tilted>0</tilted></_>
    <_>
      <rects>
        <_>
          21 14 3 3 -1.</_>
        <_>
          21 15 3 1 3.</_></rects>
      <tilted>0</tilted></_>
    <_>
      <rects>
        <_>
          21 19 6 3 -1.</_>
        <_>
          21 20 6 1 3.</_></rects>
      <tilted>0</tilted></_>
    <_>
      <rects>
        <_>
          21 21 7 3 -1.</_>
        <_>
          21 22 7 1 3.</_></rects>
      <tilted>0</tilted></_>
    <_>
      <rects>
        <_>
          22 2 3 14 -1.</_>
        <_>
          23 2 1 14 3.</_></rects>
      <tilted>0</tilted></_>
    <_>
      <rects>
        <_>
          22 7 3 1 -1.</_>
        <_>
          23 7 1 1 3.</_></rects>
      <tilted>0</tilted></_>
    <_>
      <rects>
        <_>
          22 8 2 2 -1.</_>
        <_>
          22 8 1 1 2.</_>
        <_>
          23 9 1 1 2.</_></rects>
      <tilted>0</tilted></_>
    <_>
      <rects>
        <_>
          22 8 6 6 -1.</_>
        <_>
          24 8 2 6 3.</_></rects>
      <tilted>0</tilted></_>
    <_>
      <rects>
        <_>
          22 10 2 8 -1.</_>
        <_>
          22 10 1 4 2.</_>
        <_>
          23 14 1 4 2.</_></rects>
      <tilted>0</tilted></_>
    <_>
      <rects>
        <_>
          22 12 2 2 -1.</_>
        <_>
          22 12 1 1 2.</_>
        <_>
          23 13 1 1 2.</_></rects>
      <tilted>0</tilted></_>
    <_>
      <rects>
        <_>
          22 13 4 8 -1.</_>
        <_>
          22 13 2 4 2.</_>
        <_>
          24 17 2 4 2.</_></rects>
      <tilted>0</tilted></_>
    <_>
      <rects>
        <_>
          22 14 2 2 -1.</_>
        <_>
          22 14 1 1 2.</_>
        <_>
          23 15 1 1 2.</_></rects>
      <tilted>0</tilted></_>
    <_>
      <rects>
        <_>
          22 18 2 6 -1.</_>
        <_>
          23 18 1 6 2.</_></rects>
      <tilted>0</tilted></_>
    <_>
      <rects>
        <_>
          23 0 2 6 -1.</_>
        <_>
          23 3 2 3 2.</_></rects>
      <tilted>0</tilted></_>
    <_>
      <rects>
        <_>
          23 4 2 6 -1.</_>
        <_>
          23 6 2 2 3.</_></rects>
      <tilted>0</tilted></_>
    <_>
      <rects>
        <_>
          23 12 4 12 -1.</_>
        <_>
          23 18 4 6 2.</_></rects>
      <tilted>0</tilted></_>
    <_>
      <rects>
        <_>
          24 2 3 15 -1.</_>
        <_>
          25 2 1 15 3.</_></rects>
      <tilted>0</tilted></_>
    <_>
      <rects>
        <_>
          24 3 1 2 -1.</_>
        <_>
          24 4 1 1 2.</_></rects>
      <tilted>0</tilted></_>
    <_>
      <rects>
        <_>
          24 15 2 6 -1.</_>
        <_>
          24 17 2 2 3.</_></rects>
      <tilted>0</tilted></_>
    <_>
      <rects>
        <_>
          24 16 3 2 -1.</_>
        <_>
          25 16 1 2 3.</_></rects>
      <tilted>0</tilted></_>
    <_>
      <rects>
        <_>
          25 0 2 17 -1.</_>
        <_>
          26 0 1 17 2.</_></rects>
      <tilted>0</tilted></_>
    <_>
      <rects>
        <_>
          25 2 2 12 -1.</_>
        <_>
          25 6 2 4 3.</_></rects>
      <tilted>0</tilted></_>
    <_>
      <rects>
        <_>
          25 6 3 6 -1.</_>
        <_>
          25 8 3 2 3.</_></rects>
      <tilted>0</tilted></_>
    <_>
      <rects>
        <_>
          25 23 3 1 -1.</_>
        <_>
          26 23 1 1 3.</_></rects>
      <tilted>0</tilted></_>
    <_>
      <rects>
        <_>
          26 2 1 12 -1.</_>
        <_>
          26 8 1 6 2.</_></rects>
      <tilted>0</tilted></_>
    <_>
      <rects>
        <_>
          26 6 1 4 -1.</_>
        <_>
          26 8 1 2 2.</_></rects>
      <tilted>0</tilted></_>
    <_>
      <rects>
        <_>
          26 10 2 10 -1.</_>
        <_>
          26 15 2 5 2.</_></rects>
      <tilted>0</tilted></_>
    <_>
      <rects>
        <_>
          26 12 2 6 -1.</_>
        <_>
          26 12 1 3 2.</_>
        <_>
          27 15 1 3 2.</_></rects>
      <tilted>0</tilted></_>
    <_>
      <rects>
        <_>
          26 17 2 2 -1.</_>
        <_>
          26 17 1 1 2.</_>
        <_>
          27 18 1 1 2.</_></rects>
      <tilted>0</tilted></_>
    <_>
      <rects>
        <_>
          27 2 1 2 -1.</_>
        <_>
          27 3 1 1 2.</_></rects>
      <tilted>0</tilted></_>
    <_>
      <rects>
        <_>
          27 3 1 10 -1.</_>
        <_>
          27 8 1 5 2.</_></rects>
      <tilted>0</tilted></_>
    <_>
      <rects>
        <_>
          27 6 1 18 -1.</_>
        <_>
          27 12 1 6 3.</_></rects>
      <tilted>0</tilted></_></features></cascade>
</opencv_storage>
